#ifndef _UTIL_H_
#define _UTIL_H_

#include "stream_deconv.h"

static d_int hidden1_weights[4][4][32][10] = {289,-50,-13,-220,2,31,-79,229,115,-17,0,-31,-38,-86,84,75,-39,188,23,-23,-47,-135,61,-43,-56,152,-6,-6,51,-192,-37,46,-91,-148,-115,138,-168,52,21,50,-183,4,-27,136,259,-16,16,245,61,38,43,-19,-91,-88,127,-108,125,-65,102,-52,66,-54,-120,14,162,-62,79,-102,39,44,54,-16,-54,27,135,-15,0,-5,122,75,63,22,-193,56,29,-20,185,-143,257,84,22,13,-31,93,148,-73,-64,-1,-56,-16,128,53,0,87,-90,-116,332,-17,-19,176,-5,15,152,-164,-130,-223,32,44,-19,29,107,31,-20,-101,155,30,66,7,-21,23,24,-14,44,37,47,-63,64,11,-59,25,147,-88,-13,-52,90,57,96,-131,242,91,152,36,-91,-141,7,169,-35,45,181,-42,-103,-75,121,156,1,224,-58,-301,-18,-220,3,79,78,67,133,-2,-33,-169,-8,-17,5,56,13,-6,-30,97,7,-4,27,-74,-101,29,46,32,187,91,-36,1,20,-74,-120,121,-41,205,69,-11,-34,-86,-143,37,-66,-25,-48,29,4,-63,-129,88,-131,-116,54,-82,-305,86,-63,120,-146,90,-48,-121,106,76,-89,-34,-265,-56,76,168,-13,98,83,72,-136,144,25,17,-91,39,90,195,-60,-9,26,-249,41,-20,-1,-13,82,10,-71,-27,26,-67,-16,16,21,48,34,-69,-42,31,67,56,5,2,21,37,-29,-62,183,22,42,92,-23,-25,-86,79,112,-91,90,67,99,-50,54,61,-32,210,-44,-170,268,114,-43,73,-42,99,-2,97,43,101,-206,-27,63,51,-55,-236,-61,-50,-79,-51,-79,46,131,-124,116,-210,-35,109,16,36,68,112,38,-5,207,-55,-18,-22,21,169,14,141,89,-196,-53,-105,-156,-28,-308,-75,-10,84,11,20,86,-82,-51,123,58,39,142,-2,29,-41,-66,-105,-7,137,139,208,57,-39,104,-25,-35,-43,109,162,30,33,70,-117,110,-58,-164,91,-57,-56,152,-7,-289,79,-115,90,71,-142,-43,-54,-26,-93,113,-100,-64,-1,-72,140,169,-69,93,27,-35,57,66,35,112,-21,-138,-172,-6,25,159,161,137,-165,-101,133,-44,57,-64,-71,162,-165,50,268,107,81,84,-251,490,-11,-54,225,-74,137,-20,-87,-131,93,-146,11,-197,-86,-125,-42,98,-154,41,45,-15,104,-116,-118,151,103,-13,-72,92,-81,-50,-20,-54,80,-71,19,173,59,54,-46,165,70,-43,-32,-94,97,149,-106,-70,-17,35,251,78,148,224,-98,-80,-61,53,133,-28,-59,136,-5,-89,-100,150,-85,-7,51,157,134,-37,129,138,-25,14,91,-254,85,-56,-227,-107,123,149,-103,127,-65,-6,-171,-121,-71,-214,167,1,-36,-108,-21,-21,-161,-51,-24,-158,23,-68,89,-82,-28,23,-80,0,-1,-90,-103,4,184,200,-173,-80,-72,-13,230,221,165,-219,-23,-133,115,-69,196,-64,242,144,74,-27,-173,-54,95,-122,2,-26,-13,-59,84,-113,-11,-7,-11,12,0,70,9,146,-27,200,-118,120,-24,152,-116,89,-23,-11,-159,185,-44,124,93,-9,-59,143,45,-71,110,-30,226,-66,-94,-129,-15,-35,-52,186,-143,-115,96,-31,126,108,57,138,149,-168,-120,67,81,-67,-203,8,131,-46,-40,99,162,163,46,74,10,-151,150,109,85,57,180,-52,-42,135,255,-158,68,-19,-90,0,33,-18,128,-231,-167,-59,30,-206,241,-148,80,106,58,-40,-156,-134,181,-38,-34,0,-165,-181,15,3,29,197,-186,41,286,-40,99,-45,224,-5,-140,-114,-31,25,177,41,-272,76,162,-26,-66,73,302,79,156,64,-19,191,-246,-39,100,-13,105,28,-95,76,-9,-20,-72,-178,-33,254,19,11,-90,-180,-98,9,66,-106,-161,60,-45,-159,64,149,-206,144,47,-19,55,12,103,82,91,-138,-257,88,70,-156,-82,92,99,-5,-70,-53,-64,-149,-52,40,100,-149,-26,-55,-29,19,14,-15,142,-30,-16,-138,-5,39,-57,-19,64,-193,150,-90,-187,38,115,-98,123,80,-82,206,-101,153,151,20,-17,-13,73,21,66,-72,-193,4,145,-56,244,10,-52,56,174,-16,-116,-5,42,-87,165,-140,-95,-4,-260,90,217,109,-211,-90,79,-90,375,-12,107,86,-75,-86,55,-110,181,-104,-94,-90,186,295,-202,-87,-133,-87,263,-268,-59,-48,-35,88,197,-125,-58,0,65,-2,39,-114,21,68,-41,183,31,-12,-106,159,-135,-174,-75,84,142,-70,-146,-140,48,-134,-38,-45,-122,41,51,24,-41,-3,216,-55,-71,-31,-78,52,124,-160,-136,-59,152,-71,-127,-168,-17,62,-41,124,-97,-118,73,-35,-40,67,-42,81,-109,-93,145,-30,17,24,-234,-22,53,-146,-56,-51,84,122,-45,146,2,93,61,-59,-31,-269,-136,-181,193,-267,22,-87,-119,-170,43,-179,14,114,-23,-91,24,-26,8,-48,50,-87,-27,-50,19,-67,-13,31,-95,-180,232,134,-136,7,-30,135,302,-186,-103,-226,13,26,21,78,-80,-52,74,-68,63,1,-24,154,66,-15,-152,-33,-99,-29,-36,-107,38,-140,-29,21,91,-54,5,-191,-278,107,146,-58,-249,118,123,-159,259,-199,6,-14,12,1,-214,-24,-70,-123,-25,208,-156,-54,-37,-9,33,-59,-24,-186,62,90,0,-113,162,52,-12,-28,-30,135,278,-16,221,171,-236,-22,125,-114,133,-88,-153,36,114,-23,-113,-93,150,38,73,-58,-204,33,50,-214,22,-126,24,-36,-208,-10,64,-33,-149,-73,60,-261,27,180,-2,-127,-77,-3,-119,-122,83,-137,-43,164,-74,36,-86,18,-7,45,73,63,-56,-57,63,144,-10,43,171,52,88,24,-74,-102,98,-110,49,26,-151,-234,-32,-210,108,99,1,135,-123,123,257,-125,38,-10,353,-143,-17,99,-147,3,192,-180,11,-38,129,-110,-93,-158,-120,150,-257,153,70,-197,-105,77,-251,-18,62,61,-30,91,-90,-212,149,-84,111,-188,-121,36,52,42,19,-145,15,25,195,-72,-223,-8,-133,-104,165,-154,39,52,-18,-67,-37,-238,151,109,-43,144,-281,-135,116,17,107,184,-48,51,-188,-21,240,28,-198,368,-61,6,-31,-63,-46,9,-69,-1,47,-59,22,-202,129,97,-110,175,232,123,-270,-144,60,96,-21,-120,164,10,168,-103,-136,-39,2,-186,7,94,-53,-82,-139,-59,-9,-84,-30,9,30,77,8,-94,-16,33,83,72,-70,18,-67,-146,201,-183,63,-36,-64,-92,-30,148,165,-107,148,-126,65,62,203,104,-118,-57,-58,55,70,-56,-409,121,65,-22,173,-26,126,31,-58,-206,-12,12,-51,-28,-209,-69,-99,72,-121,-1,-66,42,-7,52,-65,41,61,36,118,64,90,-19,-37,126,-22,143,-24,-117,-103,-24,-88,-56,28,87,77,-95,37,-98,-77,50,35,38,21,-258,49,-99,-1,-40,15,220,124,28,-68,115,-41,110,43,2,106,21,-9,-72,154,-94,-47,-155,26,59,82,37,-98,-59,-316,-70,-36,7,49,-92,-90,-169,125,32,60,3,-58,-38,-53,33,55,72,-95,-46,-89,48,-217,-191,85,263,17,175,78,-142,-26,-69,-187,39,-25,41,75,104,98,-217,153,-46,54,-23,-39,-46,57,-13,196,90,-48,54,-142,63,5,3,170,19,-69,37,28,164,36,-131,13,-69,45,22,92,65,-175,88,-110,-215,-24,-15,79,114,-159,91,-263,0,57,-153,-113,11,161,144,93,62,-101,215,-100,-96,122,-12,0,49,74,-73,-79,-24,-211,-5,49,-42,-29,-2,50,5,-37,28,-28,-116,1,24,21,124,-87,19,-123,48,-101,30,-84,-144,-94,138,-40,158,-51,107,70,-250,-6,33,-30,41,-64,28,-166,-52,14,-25,36,111,-157,-123,-43,-100,-37,-151,-63,194,-101,-27,19,61,115,10,48,80,0,161,-4,-51,34,-105,55,5,-27,-30,79,31,124,-3,12,-6,55,38,33,13,-2,79,-35,29,65,34,187,87,-30,92,-86,148,-35,-22,31,108,136,128,54,41,37,-84,4,-102,92,150,100,-76,-90,56,-51,-33,4,139,79,-14,236,-134,-154,104,-145,-24,2,-78,115,74,88,-64,-87,-6,-2,-152,-120,36,-60,-15,56,-20,-116,-36,14,-87,-68,-175,61,-38,78,28,-42,57,-145,141,102,-75,-172,-99,38,-6,96,15,-60,15,-25,73,-93,-147,17,-123,75,-47,-105,-246,-36,199,50,84,153,-43,75,47,-174,-56,44,-15,-86,-40,51,7,-243,-82,177,137,21,28,-246,-32,96,141,205,22,-123,151,1,-75,-48,-47,-60,-39,103,-26,121,126,140,111,-30,30,-47,-107,-29,-138,-90,-2,9,-71,118,131,170,-79,0,-35,-47,190,-193,-18,95,-122,92,104,-32,171,-93,-2,-129,-41,10,64,157,85,-179,163,-9,-116,-88,-9,220,24,-169,0,2,-55,80,196,-22,82,58,96,159,11,-140,-14,11,-175,19,233,-44,65,-39,-33,-86,-218,-239,-154,20,72,-92,-48,22,57,-79,-42,24,-78,-73,53,-95,-198,-35,32,22,-115,-119,-112,-23,185,91,-39,-190,63,-134,-98,21,-167,-10,-40,52,-67,7,-32,-123,-9,195,127,-35,-72,68,64,12,6,-1,-70,125,-228,50,87,95,-12,-105,-85,-29,-117,-132,-177,-102,-88,-149,38,-55,66,44,-58,175,-81,114,-121,-159,-133,-82,-65,101,-153,-9,-152,-176,129,99,-63,-134,44,-117,-31,89,-109,29,-44,-50,34,-165,-56,-126,16,-7,18,-100,-144,-95,82,31,-33,-70,46,91,-58,89,90,23,-15,-108,17,147,-131,34,63,-27,28,-129,-91,-39,65,27,-144,81,-141,-4,-16,-71,76,-23,-33,-31,60,-2,-94,56,-143,114,-53,-183,59,48,18,27,-70,80,147,-25,-158,71,-200,57,-108,-244,-45,-53,-115,62,-34,132,93,-27,17,16,31,-49,-100,22,75,-154,-48,61,118,85,114,271,62,-187,135,177,-58,-53,22,-1,-4,22,70,114,117,-45,99,-94,-101,94,-50,120,-11,-25,-13,-60,5,44,-149,2,-85,52,-126,115,-125,15,39,141,-38,-16,-138,-14,15,-127,-24,-16,0,-119,-127,-47,0,-38,-66,73,54,200,-9,28,165,-68,0,-42,135,94,-33,68,17,-92,-47,14,215,289,-94,-152,2,99,-113,128,-57,-190,32,-124,-34,59,40,44,53,-49,-96,212,-40,107,14,74,52,-79,35,-73,-20,4,82,-16,-123,-213,37,92,43,-99,54,56,208,-2,-52,-62,-102,-29,-30,168,-79,-61,180,-2,-30,-49,-83,77,-20,-119,-47,151,244,-29,-199,133,43,55,16,-103,83,216,188,29,-33,78,-113,-92,3,50,-107,122,-88,-9,-9,20,92,-45,99,-55,51,0,-41,21,-29,105,-71,-68,-42,97,-55,147,247,116,-112,-129,73,175,1,-57,-216,120,38,-175,-109,-177,94,20,151,-130,287,137,126,67,-17,-103,6,104,-95,72,-72,-52,-118,36,-127,-10,90,-43,4,-60,13,-24,133,-32,-116,-215,40,317,-34,-65,83,-130,-45,0,-16,3,42,23,-55,-159,9,110,-18,17,17,35,-4,-135,-97,-278,-81,150,-32,-46,26,-46,-26,-81,14,-166,-96,62,79,136,92,-28,187,0,-16,119,109,97,-154,26,60,99,0,-235,-137,-7,180,-99,-44,102,-80,-25,72,66,-41,-127,26,30,-10,-46,-9,28,81,-17,-34,20,99,145,22,100,124,96,-15,37,-124,49,-90,-86,-101,144,3,11,-16,-23,-150,-88,-80,-187,21,23,-238,-42,-29,27,-133,-35,7,78,-56,29,82,139,24,-56,113,-72,13,-66,-75,-104,-98,-8,27,20,107,-192,-103,163,12,-34,25,47,-29,-28,8,-147,-107,66,106,-96,2,-213,-1,10,138,-26,118,91,11,-122,82,144,-25,-78,58,102,-26,23,-75,-4,-36,97,86,-117,50,44,-21,83,85,10,63,43,78,-51,-60,78,54,210,102,165,-116,0,29,-11,-32,-96,148,118,246,155,-29,-169,-43,297,-112,89,33,-134,1,-27,-53,-110,31,-134,-54,17,-42,171,-61,-84,-21,26,-49,-121,-7,-87,-16,117,5,-193,58,-46,112,73,3,-294,23,-27,12,66,39,38,14,21,-93,-43,-14,-58,227,-36,-59,-35,-101,183,12,-57,7,-63,177,5,-98,89,-71,-48,-17,-76,-46,147,-124,55,66,88,-2,-280,-45,87,-96,2,143,116,21,-161,-17,288,-145,-70,9,-92,3,-31,76,-78,-33,74,54,-236,58,-63,-206,-44,31,-125,54,-179,58,-96,43,-47,-23,-78,-29,-120,56,267,12,-148,99,-266,-92,50,-81,-143,45,-83,-145,-39,-108,-7,66,-91,10,16,-167,-113,182,85,2,-52,57,170,38,-18,42,-214,-5,121,107,32,-87,-191,52,189,-34,-100,62,85,71,168,19,-18,-43,-1,-91,54,123,46,114,-94,-105,58,299,-63,-32,123,-13,-133,-15,177,97,70,-87,-118,-124,-18,-22,-150,-111,169,-94,21,49,-88,-67,-81,-92,-111,-104,-3,-146,-45,8,75,26,-168,-59,69,-76,-13,1,-52,-22,11,132,116,-139,-143,1,30,26,-140,-66,136,33,6,172,-127,134,82,30,43,-60,-64,-27,-43,-55,-257,-138,-54,-138,-69,48,102,102,-98,109,-36,98,11,70,-23,63,33,-26,-82,3,-95,-200,53,-2,78,-58,-45,-143,-212,75,-9,-152,42,168,28,-52,-142,-18,56,6,-68,111,-7,44,-6,-1,-58,36,-133,157,72,-117,168,1,-36,-26,-27,81,230,55,-217,125,-171,41,100,-113,77,53,83,-156,7,-63,124,-69,-58,-21,-28,-39,-184,-14,44,-91,182,-137,17,-115,46,-24,-98,0,-15,55,111,-175,-64,90,-116,-5,-100,-87,-167,-126,-26,-57,148,344,84,-101,-93,-86,-23,-43,-7,84,26,241,-6,74,91,-38,10,-58,-51,-63,-108,-12,110,-79,155,109,-60,108,-269,31,-12,-80,198,9,9,9,51,121,62,-152,-53,-129,25,-56,-46,10,-162,30,153,-8,-46,-11,-147,120,-135,35,-82,138,9,-185,63,-29,-4,-56,-199,12,166,-8,59,53,-114,10,0,-80,-207,62,153,111,19,-90,-46,-5,-83,-64,-30,100,83,-71,51,-95,-80,60,39,61,-102,35,-19,-50,66,-105,-40,-101,48,42,-88,50,-41,40,54,-17,112,-189,55,-74,-81,-126,-114,-108,122,-120,-54,-117,161,0,79,106,-97,186,-100,-68,-69,-7,202,46,1,101,-4,115,-45,-54,109,-56,67,29,-40,47,18,16,-82,126,-87,146,76,-31,119,71,79,114,-167,-27,49,42,35,-49,151,-64,133,17,-229,-167,71,-24,73,179,-135,-159,-148,77,168,-42,-166,57,49,-47,-47,94,77,-4,14,-174,47,14,23,-103,-62,-27,-57,-74,-67,15,23,24,-42,-4,75,23,-91,-58,-170,154,56,-22,-61,-199,90,21,-75,102,18,0,-88,196,115,-34,-36,2,-100,-179,113,133,-5,27,41,-85,-75,-75,4,-97,131,-36,152,62,-87,114,-100,-65,24,-151,-3,-84,102,46,10,-65,-64,11,-86,-16,-189,86,-130,-41,-75,118,260,116,-12,212,-5,71,80,-42,-118,66,303,-46,-78,105,-96,21,-59,154,-11,56,143,-21,-149,108,62,49,60,-30,-124,-93,-38,-58,137,-189,7,-108,-36,93,45,-7,-110,20,-155,-73,-117,-253,-114,-36,-74,94,-191,-35,-73,-28,8,81,72,79,-152,-51,36,-39,169,-32,-9,53,-100,29,190,19,-102,149,94,141,118,-31,59,41,21,28,149,141,-187,103,-182,31,6,81,145,-34,39,-29,58,176,-77,-92,-86,41,78,30,-181,30,94,-84,123,145,33,-147,-72,17,16,-8,18,-44,210,33,-207,15,105,-23,-57,89,-21,98,56,121,-78,-26,126,-126,-17,44,51,-92,134,78,-124,-26,134,65,-57,29,77,77,-82,115,96,34,-88,-29,15,-86,172,-119,-30,-54,111,-35,99,52,69,8,-101,-24,69,137,52,-189,-145,10,137,-156,67,-9,-4,-70,-28,-92,56,-33,-156,68,-47,115,61,-67,-126,83,176,-34,15,36,164,116,173,-18,-16,210,-74,4,59,-12,69,-54,-60,-45,3,11,-29,94,100,-7,55,171,-56,50,-16,-99,-86,36,73,101,-122,158,-37,4,-96,126,142,-16,-104,87,125,-81,0,-25,-47,80,-116,-148,-68,-99,142,-252,-56,170,115,45,-177,-112,0,-65,78,-148,-16,-58,-3,-99,62,90,45,15,-141,8,301,108,-93,-50,15,-2,-64,7,-12,-89,87,-16,-2,-85,-126,-106,222,150,47,252,-148,-135,-154,0,149,57,-114,62,47,62,206,-6,24,-79,-112,10,36,12,33,-44,154,-50,94,135,85,-61,48,-59,20,48,-91,-85,26,-20,-148,41,-13,-16,0,-180,47,110,-149,59,203,42,-105,60,216,-16,178,4,-44,89,13,-41,196,-69,-127,24,5,-24,-150,-158,69,45,153,-42,-22,20,-12,49,97,-103,-39,2,-21,28,32,-33,-53,-231,-55,-34,76,62,37,-10,95,-8,-81,-49,-7,-101,76,90,-80,41,-63,-59,-47,224,87,-66,-130,-58,282,46,-143,181,-221,34,-68,7,72,92,-129,84,77,-91,-156,-8,-6,-29,19,-1,70,57,-175,61,4,-52,126,-2,66,99,147,-37,-132,64,-173,-57,40,92,9,-53,-62,-64,148,-81,2,-84,53,-28,-66,29,13,51,-95,75,-26,181,-17,83,14,-36,-29,73,-2,-22,-214,-237,-221,12,211,0,-182,35,177,114,84,87,78,-1,103,17,-1,-4,201,-44,92,73,124,21,-98,-99,-92,-42,144,-72,-44,145,-2,-74,-250,-121,266,-5,-104,113,-185,102,44,39,52,-30,-72,-87,253,37,-130,137,-145,45,68,-212,-44,165,-35,7,-68,-214,-115,40,30,-20,-112,-4,-8,16,32,138,212,92,-212,-91,190,-69,-61,-3,-178,7,-121,-107,66,-75,189,45,156,142,86,-5,60,-55,-9,109,124,-88,-65,109,-117,177,13,-103,63,-14,46,-42,91,0,7,64,-69,-56,-93,93,276,89,-102,155,-118,32,31,-84,-95,50,95,-142,-104,29,67,-159,-29,-33,140,80,-70,-43,-39,-7,87,-150,18,-30,195,96,-190,77,-28,94,139,-129,-72,34,14,46,-186,-7,61,-102,55,-143,-14,38,-22,5,86,102,-17,-28,68,-40,110,-64,23,26,61,22,-32,-54,-29,42,48,28,139,58,1,-36,-38,134,-79,60,-14,-50,31,108,-48,18,87,16,-37,57,80,52,-128,60,227,-29,-112,115,-123,-85,28,22,93,-102,-66,97,81,76,25,-9,-28,17,12,59,-93,22,-12,0,-153,25,83,41,37,-26,-19,-87,-97,-90,105,-45,-104,151,7,-39,-108,58,0,-45,35,-108,-37,-52,-24,63,-168,-7,1,174,-70,111,-102,62,93,34,-103,54,60,-77,-22,-69,18,-33,3,76,-207,-19,3,-38,136,103,-14,4,105,-129,19,44,144,-99,235,37,188,-124,-20,63,14,-42,-141,110,-17,-49,99,142,-105,-51,-38,-46,-56,-40,12,-377,-117,-35,-42,-36,-132,-115,-58,20,149,-22,2,74,73,65,-130,-105,198,-70,-176,23,-58,50,-1,-4,102,50,20,-80,-117,-24,44,-135,-151,64,-41,-57,-4,-2,-72,-153,-2,-32,-132,-20,-182,-15,-75,-36,-201,15,160,-27,-6,-88,265,-69,-153,136,33,127,-112,97,43,-125,-170,111,369,-222,93,85,54,39,-13,7,163,-135,178,29,-139,-272,139,290,-131,-40,-95,-171,210,-187,26,-159,-4,-1,-14,36,-45,-86,26,121,12,-107,-70,24,50,87,-96,11,57,-41,-66,22,27,-38,8,94,-117,33,33,10,-51,-201,12,75,1,27,-266,-53,-51,-143,27,-166,-119,93,-6,60,-163,51,-20,-56,56,90,23,19,-24,-5,0,32,10,-2,91,-163,20,-14,74,-110,-351,0,150,-109,-41,-74,88,-26,70,62,15,116,11,62,-57,-46,208,-132,-141,-55,8,-86,-42,-184,147,147,-82,-203,38,-170,50,-92,-117,-50,124,-110,-40,-12,7,42,-19,-42,-80,-52,18,-144,-68,-72,176,-89,-276,78,120,-201,219,-1,-21,-175,38,-131,-29,-58,-21,-95,120,-38,-123,-133,67,-183,-102,9,-99,-79,133,-55,-39,-171,71,-59,-4,10,-228,59,126,20,-173,150,15,-116,-97,138,-30,-103,82,219,-220,-4,-116,-44,321,-56,-69,217,-50,-35,24,324,86,161,-28,-28,22,-217,82,-144,33,-19,12,-120,-156,112,-81,98,-128,-178,-104,116,-36,97,-148,-56,147,-35,-50,-6,-115,-195,53,-138,-91,83,-26,44,92,51,112,-53,67,71,-16,-241,59,131,381,-139,97,26,127,41,-30,-130,-114,201,-48,35,-192,70,7,-75,12,25,-19,72,-13,-76,13,34,-40,19,-52,43,-96,-11,-51,167,-21,-11,-70,-99,105,-66,55,72,-59,-78,147,-144,93,94,101,90,-154,62,-54,42,-134,-45,-91,-159,-50,-1,-95,71,134,-50,-97,81,130,-3,-191,79,20,-34,113,-54,-74,-32,109,-14,-100,-38,62,1,64,84,-23,21,15,-91,188,-151,-91,-36,-66,0,-47,32,101,88,95,-48,24,47,52,167,141,-110,-28,47,214,-162,10,-9,-37,78,-89,108,14,-112,34,21,-121,-182,201,55,-290,-204,99,-157,-37,-65,119,170,17,134,-33,1,74,56,64,-24,-12,13,199,-56,-36,-69,-20,-53,59,5,62,-14,82,-87,122,202,-77,249,197,114,37,142,-215,81,-71,-52,-108,-227,12,-95,-43,0,-21,18,106,41,-184,40,275,-17,-154,104,-212,316,60,61,-166,-68,176,-18,66,25,-67,184,-153,18,109,-133,-205,43,81,-126,127,-80,13,-187,50,-9,5,-31,-11,127,-46,-15,102,150,-102,130,161,82,-75,157,-176,117,-52,-113,-139,-125,117,-109,-28,0,-111,184,-66,-108,-166,-116,181,-99,32,-38,-68,-290,-51,50,19,25,-296,-28,-107,-139,304,8,-240,129,190,-3,-154,88,-69,-135,260,117,-79,-9,-236,6,440,-55,-198,267,-252,-13,-150,-66,138,-104,-44,-39,-28,-93,151,107,-62,63,10,-38,51,79,74,-84,30,-151,-118,79,-81,-50,-131,119,-56,-203,-148,-94,-56,21,66,-150,-151,1,95,-85,-6,145,81,-26,84,-103,50,-92,-3,-401,124,-46,-96,142,61,62,-155,26,124,-43,-11,134,74,-141,-113,-205,138,-41,-10,34,-196,213,-91,-129,36,-29,33,31,45,-18,118,150,-7,-110,-220,-113,261,-123,-28,41,-152,-24,74,-141,124,1,-145,-19,75,27,144,6,-250,-27,-178,-52,156,13,-148,183,-31,83,-176,199,103,-68,-66,56,-160,-158,236,-16,-19,93,123,-41,-255,-114,97,-111,82,-32,179,70,-103,-16,-16,-105,180,-82,-154,-6,-97,197,60,-47,0,110,51,-10,-38,86,15,42,167,-49,-10,-126,22,193,-86,293,-54,132,-314,0,270,-90,113,-7,-181,48,-383,30,198,-60,-32,162,290,208,168,150,57,148,-101,129,198,1,31,-57,-31,39,-142,-108,67,-18,161,-7,-93,211,71,112,-76,-138,-256,-93,315,-220,-147,126,-180,239,-141,259,-16,-70,-73,104,96,-53,116,31,123,-21,-26,0,248,64,-140,140,-115,54,-18,-33,-113,102,78,71,25,-109,17,-41,-60,59,16,74,323,127,-111,166,-119,-135,-6,-79,-46,-69,-15,-55,52,-79,22,-68,67,-45,171,58,-149,-2,25,-26,189,-92,-135,11,200,102,-163,-17,219,79,241,190,-30,189,-90,113,151,156,-33,-64,-72,30,185,-99,-74,-14,93,-172,97,-60,-104,-79,1,93,52,-83,-278,55,70,-73,136,137,-2,239,-102,144,321,142,-129,169,-149,-65,-139,62,17,43,95,149,-93,19,-146,-222,-59,111,162,26,-299,-35,36,-78,8,84,-20,-62,-52,-51,155,89,19,58,-102,-209,67,-26,-29,32,-250,-27,76,-103,-49,65,235,156,-143,-45,-113,-74,361,-110,23,-20,-211,49,-22,-86,-29,75,40,-103,27,-176,-50,-27,170,-99,49,126,27,-175,-133,-24,87,-2,165,108,-73,66,-51,-129,104,131,58,23,-280,43,484,-39,-232,268,-318,176,-31,-16,150,73,107,25,-95,29,122,-115,-73,-51,-103,33,-55,86,-222,-72,268,56,42,213,4,84,-13,85,-34,-88,-22,8,-5,110,122,305,-30,76,58,-15,103,-37,115,128,33,141,22,94,68,-87,-105,173,93,15,-53,-186,94,93,79,-72,33,26,-43,311,41,-137,91,-24,-258,-190,13,-45,145,37,84,103,97,87,-55,88,-82,-48,-314,96,192,103,-251,139,154,-149,308,-58,-126,55,90,5,-147,-11,134,-12,156,175,-82,163,91,12,-93,161,-6,9,8,-174,-187,59,6,-184,36,57,91,-95,-159,27,111,-21,-260,-139,-25,-74,122,-32,-129,240,259,-194,-44,-40,62,-154,22,78,88,-50,-42,97,94,106,-87,98,1,2,-71,18,-26,-39,29,26,15,59,-14,15,91,60,-27,5,43,75,138,68,-58,69,-46,22,88,2,54,186,-93,83,102,-38,58,237,-47,170,112,-38,-25,101,85,-47,99,112,-61,-162,-11,-51,44,104,31,157,67,31,-27,-44,37,-66,204,-68,-310,88,-61,95,70,-70,96,89,90,-18,-77,145,-3,-32,-61,-41,91,69,-12,196,-21,46,27,54,-49,-113,106,69,-169,13,-4,163,9,108,47,-78,27,-10,59,-80,47,-26,115,-207,-130,-123,-30,100,-114,4,80,-136,164,36,180,-106,-164,-63,162,-4,-22,52,2,-52,125,-87,376,192,-126,-13,11,-17,134,-154,-99,176,-6,-18,-96,-72,67,-191,67,-232,-153,-51,202,71,-244,-10,157,-43,251,-4,198,-98,-1,-35,12,-101,-100,35,24,-167,80,113,16,74,6,66,-96,82,-71,89,137,74,16,138,-291,-67,99,-37,3,-29,8,-47,11,41,-47,0,9,-60,33,15,-127,-43,-114,-345,90,-25,90,-28,56,-49,156,41,67,94,213,80,-179,-131,29,72,337,-174,-31,-31,85,-164,-54,75,-146,251,-192,108,82,-69,-142,37,290,-23,55,158,-53,-55,98,90,-23,-29,91,71,-24,95,110,53,125,89,57,142,-41,66,1,132,123,-7,-174,69,110,-102,100,-85,27,-108,55,-16,-8,107,-197,-52,-27,-10,12,-43,45,28,55,367,-137,151,91,-37,-9,-61,-187,67,-67,103,-239,58,30,-86,138};

static d_int hidden2_weights[6][6][32][32] = {172,-205,-98,159,131,54,74,-38,127,-3,226,89,133,-138,76,-85,62,-107,-102,-32,206,2,-1,97,-7,26,27,-37,117,133,58,-18,-9,69,-112,-50,123,135,-156,125,38,60,-147,104,-72,-46,-71,-101,169,-94,-4,-148,39,-25,-190,61,164,190,40,-11,-54,-31,-120,33,110,-94,52,34,92,99,-7,-21,86,113,128,8,17,84,-21,13,70,54,-40,-58,85,56,150,-4,11,8,20,-162,77,117,19,49,-68,68,-47,25,-23,91,-49,-68,-133,116,86,4,64,1,51,36,-72,-45,8,138,7,43,-59,-139,86,-90,-92,-16,55,-41,1,-59,-91,-101,1,20,-29,-18,-119,122,-9,-44,57,-79,179,-25,-50,35,-94,35,39,-61,130,-150,-84,167,-17,48,-7,-132,221,-218,43,-57,35,29,-83,27,-99,61,-152,0,-94,120,84,-20,-111,-115,-109,-21,78,21,20,3,-2,-119,-46,-53,70,70,27,-3,-10,-124,88,31,31,-10,-2,54,75,52,-62,11,-21,135,31,86,35,20,-40,60,53,100,-185,137,12,22,11,89,12,30,-56,-29,69,90,9,37,10,51,36,56,23,-46,26,-116,136,-34,166,86,-33,-39,101,108,62,-121,3,17,92,34,-9,94,-83,-10,-66,-83,73,98,9,-32,-115,10,-36,59,115,-142,26,-161,12,40,23,35,-33,-59,-81,-7,64,-42,140,-47,183,51,-66,30,0,177,19,-11,56,59,-28,-171,-64,-166,40,-141,23,-39,109,-144,-128,-49,-283,-63,-135,42,93,-14,-198,113,-92,153,-1,-151,-37,-6,-339,-66,15,-82,45,193,68,-3,-33,110,-138,46,-161,-123,155,64,-72,-118,11,-87,-62,89,-129,-30,-58,110,11,156,23,-88,-21,-83,-76,63,74,25,103,17,151,3,71,-77,81,62,-36,-35,22,4,37,13,184,74,-43,21,98,69,125,27,-35,-18,6,-118,-56,88,41,39,-85,-44,173,91,45,32,-64,25,84,-12,-20,-67,20,-40,27,-31,106,79,17,10,66,119,-12,-5,35,20,-7,23,2,74,-53,-28,-67,15,49,63,55,-4,-21,-170,-20,-28,66,34,64,23,-134,-87,43,-34,8,57,-105,-38,-39,56,-77,-8,79,32,10,27,-64,0,74,-17,66,-161,85,-59,-29,56,45,89,-7,-24,134,64,125,0,71,-185,26,-42,-144,-51,42,98,10,97,-146,53,-22,-57,-139,-41,-134,57,128,-30,-36,-21,-40,-75,2,127,42,30,53,-83,-49,106,105,77,22,23,-63,95,64,80,45,35,62,59,13,73,46,49,-36,-102,15,2,18,40,107,6,-82,38,-24,72,-99,-25,-80,92,120,39,-146,-25,-33,42,38,18,-8,-117,-16,-129,-193,11,62,75,29,-20,60,-173,15,90,-233,-6,-112,-115,-275,41,66,90,30,63,-101,-162,-222,48,-180,-56,-155,26,16,272,37,-88,-10,40,-13,36,200,-10,-66,37,198,-22,-38,-69,40,94,332,-15,24,17,171,85,116,117,-31,-31,-121,-40,159,-92,113,-228,281,-2,-147,167,-51,201,-100,-60,-22,59,-8,-3,31,-78,24,127,-69,7,41,-118,-142,-54,122,44,-137,-103,-26,74,104,-114,-134,-11,40,-27,122,195,40,139,-21,19,10,167,30,259,-77,29,0,-105,-116,-10,23,-21,38,-84,21,-37,122,67,31,-28,-147,91,116,-98,13,-16,-38,-117,-49,11,-15,153,108,-2,58,3,-50,5,73,91,127,126,32,-233,112,46,151,74,-21,-129,104,-195,98,-164,153,46,131,24,44,31,13,50,-112,3,-53,70,118,106,-126,-54,-87,-156,-201,101,4,59,27,65,-65,-6,39,-71,-41,91,-176,-60,-48,12,-112,50,-46,-38,48,38,-56,48,102,73,16,-175,-91,107,-149,233,-74,-13,178,-52,-55,-73,-31,-73,-84,37,-65,-27,-22,181,144,67,-108,-50,-18,-118,-41,-104,-38,73,101,27,94,-91,127,-135,-16,197,213,186,29,-35,86,59,259,77,34,-11,-67,25,130,-57,-193,-17,104,-76,-67,89,-3,58,32,-12,55,224,116,63,25,-58,-53,47,107,-41,48,-116,-86,98,191,9,19,-37,28,-71,65,4,48,0,142,-3,-61,41,-32,40,10,43,53,44,-24,-117,38,-93,-74,72,-64,42,8,40,15,121,-21,-90,28,-44,-189,-76,-76,31,-7,133,-170,38,-118,-120,79,46,-72,14,94,-75,-44,56,102,-54,-99,137,-21,-7,-21,137,-18,58,163,-6,-117,-113,31,-49,-94,96,94,-61,56,-94,-138,53,-78,-14,65,-43,100,-206,-102,-18,120,-195,29,34,165,44,3,-89,47,120,103,4,25,-79,-10,57,139,-59,-81,121,5,-53,17,-30,13,124,-62,26,31,31,0,97,-101,18,188,28,226,32,17,-38,93,-54,128,39,21,100,-64,-38,-1,-25,106,-120,155,-22,-26,183,5,96,-82,-66,79,-25,21,-29,33,-132,-15,123,153,20,146,-42,16,147,233,28,45,-32,13,-4,171,104,-26,91,99,71,-22,23,-29,48,17,-95,8,95,10,-3,169,-163,-67,161,-18,10,-41,31,-70,26,84,42,31,8,0,-47,-34,211,6,6,92,-7,-90,132,-119,-101,-4,52,83,-37,8,79,-6,-48,24,-4,61,78,121,104,-56,99,66,68,152,-31,32,-177,83,-78,-76,59,278,10,-82,67,-28,112,-146,-121,-19,-145,72,-219,106,55,-123,94,104,28,-57,59,16,145,-125,195,-93,-180,12,29,149,-12,-104,-132,-103,30,-124,-45,107,113,82,-37,13,6,-58,-33,8,-7,-36,116,-22,147,-60,-63,-83,67,193,64,19,98,-72,-99,4,111,-47,-3,179,43,37,-43,69,119,-97,-120,58,10,-16,-136,-127,98,-24,-66,-165,38,-150,-70,90,-120,-53,-17,99,97,10,81,-129,47,-149,150,-69,166,67,-111,122,-55,-41,117,138,103,-24,-55,168,1,15,37,-30,25,-112,-18,-20,41,-140,132,108,-35,104,-23,106,49,-141,103,3,-3,-139,41,58,-35,-173,243,94,-43,-3,-7,13,-82,18,65,84,25,79,85,-8,98,16,61,-21,-59,17,19,-11,-111,37,263,2,-67,-227,95,-125,3,-106,233,-40,-85,-69,118,-93,-37,34,66,-18,45,-161,-7,-14,90,58,1,49,65,-7,9,-38,89,-144,175,-43,23,15,68,56,-90,-38,-89,29,106,-14,56,-12,-30,-64,-187,-88,-13,50,-98,39,-5,212,20,37,-72,116,122,-43,-204,149,40,-17,-54,149,-34,-81,59,-148,15,82,125,13,-18,-73,-43,-80,114,142,-71,-2,13,-9,198,-89,132,54,-137,-8,-35,89,-77,88,29,2,132,-151,40,-80,83,-89,82,-2,249,-28,-49,-304,273,72,-70,-86,-38,-197,-169,-72,-200,-145,-117,65,292,169,46,-83,31,-12,97,132,-118,-270,53,57,25,116,-89,167,78,40,-112,18,-127,-7,27,-81,-54,86,148,-29,-35,-14,-103,-14,19,21,-86,21,-12,68,212,-6,23,-86,133,-13,-2,-147,75,-6,161,-68,-159,-105,-9,123,13,-92,-86,-62,-141,-97,31,39,25,-25,39,43,177,41,-182,46,146,37,8,38,46,77,-67,21,74,143,43,-38,-51,-45,-5,15,-54,-142,148,-24,-35,121,-146,83,16,37,119,85,57,-144,-30,-240,17,-51,43,66,-87,-10,-94,-70,41,134,26,105,16,69,-239,1,140,42,153,-27,78,-106,19,-50,18,52,65,63,17,53,89,-135,176,41,-60,-168,47,-5,76,-10,4,47,-168,81,59,-123,20,-13,5,78,-144,-20,-61,100,70,-8,-13,134,-58,42,-74,67,-14,151,37,96,143,-26,11,29,40,-98,61,15,124,147,-95,-123,-22,45,-16,-27,25,-19,-30,-95,75,63,52,-4,53,63,84,24,22,8,230,13,63,-68,74,40,-71,-40,-12,99,34,-70,15,42,-117,-36,169,-16,-34,-7,-115,-222,93,72,97,-28,-88,140,0,103,156,-33,-40,-130,75,-286,36,104,-65,-101,140,65,-14,-197,70,-406,7,40,-62,-88,-175,-47,-25,81,-18,-153,-52,-55,151,-30,37,-68,-70,4,182,171,-192,85,86,-85,-19,148,-1,-24,-1,111,-44,13,-115,-126,21,165,20,-6,-142,81,178,38,118,-70,-109,-12,119,187,-13,144,-23,4,104,-91,93,-46,5,-29,9,42,132,45,64,49,97,22,118,-166,-55,-136,-121,-154,27,89,65,26,40,78,50,-109,3,-146,91,-153,6,61,-56,0,46,-143,198,120,39,-56,2,-81,28,76,-101,-109,102,0,-79,105,-76,-17,91,152,53,36,103,-98,-77,-44,-151,-50,110,0,-26,23,0,-15,68,77,-79,-29,-45,95,-149,-105,-51,155,116,-29,-15,-76,128,-22,57,-86,-224,88,-74,129,11,119,174,-101,21,71,100,64,77,-120,53,-63,70,65,-46,-80,-119,75,-49,77,137,128,-45,153,95,70,-186,71,-57,74,84,43,-325,-125,-2,31,7,254,101,-102,-55,-71,-80,-41,-130,16,-92,-42,13,-76,149,-101,-18,39,-65,35,-85,81,-59,-17,42,98,165,-136,100,119,54,-119,-24,85,96,-172,-54,-42,-4,-50,8,32,-34,22,-184,46,87,88,78,16,7,13,239,-60,109,26,-90,2,-30,49,31,-105,183,28,81,-135,-40,102,6,-23,72,73,-44,-56,-54,-127,-103,71,73,2,109,13,-87,-16,137,66,10,-7,-140,-114,13,61,-34,35,79,75,16,-154,24,148,60,-49,23,27,-13,-57,-60,-91,-49,128,-12,-77,69,-46,-79,-105,-47,-48,-52,79,128,-72,33,-3,-130,-22,53,7,-50,-32,130,-5,-193,-45,132,22,206,49,-23,-78,-7,-72,259,-7,-25,-199,102,-193,-52,115,152,-99,-26,54,-40,-41,181,24,62,3,-71,-187,119,-28,-75,127,9,-1,-124,-126,7,-98,42,35,-21,65,101,-146,-51,22,56,-122,144,-64,99,14,50,-23,50,-130,186,-220,-1,49,-93,67,-112,-98,44,188,113,-34,46,-32,-31,-17,-50,119,84,35,-96,68,88,29,-22,39,-29,-13,150,18,32,65,5,-29,184,-59,-48,-48,41,-48,48,-103,-29,137,82,-36,-71,48,47,-131,82,-10,0,-88,127,96,80,51,78,-106,77,74,107,-111,145,35,-24,-115,71,49,-102,-61,-81,45,55,22,-38,-123,-11,-33,183,-36,93,-161,3,-58,-109,151,59,-53,10,8,-117,-101,151,10,106,-61,71,-134,169,4,-142,-2,-58,91,28,-56,93,-159,-75,-133,-33,-28,-102,64,47,40,218,-105,-71,119,-64,-131,55,-64,16,-43,234,28,-14,-149,95,69,73,-23,34,-37,-96,26,-106,28,206,-62,57,63,-14,-20,34,-6,134,20,132,-30,153,29,-37,-32,65,-13,-56,-118,151,-240,-108,249,-116,89,-125,-119,91,-8,-86,22,29,-60,-8,-240,-92,104,31,50,70,5,40,-32,141,-122,-28,-26,16,80,136,-17,-52,1,0,2,-13,-22,-88,-51,39,-76,-9,-174,10,-6,-43,-11,3,167,-16,-11,-29,106,-82,100,-28,62,154,-90,-82,160,88,-74,-13,-24,69,-189,13,-54,-129,45,31,2,78,11,-147,-10,-83,-20,138,2,52,62,48,1,194,94,-144,168,16,76,-122,-19,88,125,79,-68,153,104,-2,-49,-38,-208,33,-216,-22,105,2,-87,64,-79,11,-34,53,120,194,141,52,-2,17,90,-56,20,-192,136,109,-131,-37,-138,-159,61,-144,53,49,8,93,-21,-166,-128,73,-9,-110,-176,-71,-31,-185,4,-178,49,-20,-75,33,66,226,-187,-20,-80,48,-143,47,164,26,-82,-71,-76,-83,61,86,75,72,-8,80,-34,-177,-19,22,76,-70,52,-108,213,-62,7,-49,154,161,-50,-223,228,76,-40,-108,173,-198,-176,86,-101,46,19,-125,22,-71,-221,1,67,-50,-53,1,71,-64,78,140,47,99,88,0,29,-31,142,-169,181,20,9,305,-157,83,42,62,-34,-76,-135,280,-263,36,-370,231,-3,110,12,54,-95,-344,108,70,84,-187,131,91,221,200,-34,-210,64,32,229,10,-73,-81,-15,44,31,44,175,-266,91,-8,-34,-71,-18,-75,-51,52,12,-82,-65,68,-87,92,99,-43,164,-54,57,-148,181,116,-80,60,44,0,-77,33,-13,-72,-132,-11,42,-117,-181,68,133,-176,-134,-158,43,-184,148,-113,-38,-187,25,40,61,128,-201,-177,-113,-11,-118,141,211,17,-131,84,25,-21,7,55,57,6,-100,48,59,-128,-64,-29,87,-64,37,-121,139,3,38,-13,86,188,-100,-208,128,71,-17,-7,166,-105,-190,52,-110,-53,73,-92,41,17,36,-115,36,133,7,32,17,87,-246,136,-33,86,162,-96,84,-145,-34,16,-49,288,-114,-91,-15,-49,-23,-56,-45,51,29,62,-32,-54,99,-144,-69,-106,44,95,162,92,-199,-66,-56,-11,73,-79,5,-211,153,-129,179,281,150,-56,-74,-87,17,8,-126,-7,-122,133,99,-81,-226,73,63,-129,-82,-276,-92,-132,12,-104,181,-136,8,-85,4,145,-123,-184,75,151,-26,135,158,1,-15,54,-75,-64,22,160,-20,55,-109,-10,16,102,-23,-36,78,-18,-134,28,-40,66,-16,48,53,-2,-28,88,-178,123,-49,28,18,45,-10,-143,39,21,18,258,-99,165,-314,23,-55,123,-122,78,-37,-108,-63,-145,-133,3,160,238,76,-57,-238,108,77,-1,126,43,37,-95,-296,-3,124,-104,297,127,-27,-5,-70,125,45,-69,111,-20,-95,-52,66,20,130,-39,-52,9,24,107,113,-113,197,54,-48,143,-152,-202,-111,64,-54,-41,-199,-6,-82,71,-122,53,27,-166,-264,-61,-8,-221,16,-82,166,-15,-25,91,77,80,-210,-66,-193,58,-161,131,89,-110,-71,-39,0,85,138,162,55,19,109,-36,-36,-113,8,-29,112,-109,8,-57,-152,65,162,-11,33,-20,47,-85,69,-91,77,-153,117,-139,-114,69,-87,-29,-65,-196,5,-6,43,104,62,28,-35,36,-126,-107,-158,143,40,-88,-218,-23,130,9,-72,19,120,98,-38,-138,60,-79,-31,90,-109,-60,-93,-105,-79,43,83,-160,3,-67,35,142,102,71,-116,74,95,-130,89,-57,-10,42,-54,-89,-80,7,27,-2,168,68,-114,75,-28,-18,-47,-147,-7,96,-43,143,18,-11,-70,39,8,-70,60,-51,28,29,-12,59,150,-220,-20,-122,196,-11,136,-61,153,-105,-26,-103,49,-29,-79,-229,-55,1,-97,-96,16,-49,-128,-98,30,-37,-178,193,-45,-7,-87,-50,-277,67,-17,230,-86,284,-109,-207,48,23,46,-42,18,-70,126,146,111,6,-200,-36,-5,-62,58,-54,88,9,-198,-38,117,55,65,2,82,29,-55,0,61,176,-61,149,-45,156,-46,-42,-63,-21,-17,136,-20,76,-101,-102,154,-93,16,-77,46,-144,-39,33,75,20,-19,19,82,-17,-63,-22,34,118,2,91,41,-7,16,-174,-33,-9,194,234,-71,60,-82,74,71,67,10,0,38,60,-55,-168,-8,-22,61,87,-49,-30,-46,156,-93,-171,-73,68,93,89,100,-225,-56,-10,13,189,-34,99,-125,0,73,-18,-131,-51,-42,-245,-197,93,158,31,-88,3,-5,-86,-172,12,34,182,-78,28,161,62,65,-76,-40,-94,71,165,-3,21,58,66,13,-182,9,91,73,-81,80,67,79,26,-107,58,-96,101,38,-187,85,-24,-136,-32,44,-190,-147,-21,-8,-35,-178,-22,58,-6,-193,63,-29,-192,-105,-162,-103,-78,-76,-25,25,40,-74,-6,46,94,-83,37,-59,197,-80,111,62,-12,-14,-77,-36,-51,31,243,50,41,-155,71,-26,92,16,-86,-67,46,-169,-189,-8,14,-85,-36,21,-82,-79,37,-212,-27,53,165,-52,123,-48,-58,15,-49,-30,153,-59,124,-117,-107,78,-19,-2,-70,-4,206,-175,126,-1,137,-20,-103,-36,114,108,-125,85,118,15,102,-36,199,37,98,-30,0,-226,-16,-313,-49,19,216,-26,16,18,-154,-57,-88,-49,-37,198,-4,-20,92,-41,-229,-13,22,-26,-183,11,173,-71,59,254,-127,-51,-81,-100,45,-64,-14,-50,26,-72,-58,-20,-108,-102,7,23,-52,52,107,55,25,51,29,-89,-23,30,116,10,198,117,-13,73,63,-98,-93,14,200,-171,99,-73,-10,75,-125,-102,-50,80,-77,182,-60,-153,10,-6,17,86,86,-83,-70,45,-13,54,16,231,-134,-272,82,-56,-3,65,-265,-14,-94,67,-35,91,-70,-243,36,192,16,30,-243,-31,76,-17,-3,107,-67,-96,17,51,171,-96,-173,-11,100,65,-155,18,66,-171,-84,12,89,327,-40,-110,-127,-101,-105,-72,-33,78,-92,-127,-85,-66,-83,27,294,-175,49,61,42,43,46,42,-35,58,-57,50,-59,-10,-59,179,21,-174,26,49,-115,-40,-136,16,-162,18,-182,139,-10,1,28,103,235,-126,-175,-64,23,-39,17,156,-3,-125,-33,-67,-103,64,78,69,48,49,132,-23,-170,-88,56,193,-63,162,-101,32,-86,-28,-14,39,120,-33,25,164,38,19,-72,163,-261,-256,95,-105,0,22,-117,18,-126,-40,-53,204,-178,-34,-6,212,-68,-124,138,36,80,106,-69,55,-20,14,-126,71,-131,-15,72,-96,-9,1,-18,-81,-31,-18,-23,-234,-27,-23,22,-125,220,79,-106,-93,-42,204,67,-149,-121,65,171,148,190,-186,-75,-10,-131,-98,161,21,159,-46,-58,-16,-45,-22,-181,146,-108,-27,-34,-46,-152,-60,-78,45,-29,-43,-62,3,150,62,-173,47,-9,-35,-31,67,73,58,-34,123,-13,-68,-78,95,44,-31,22,75,2,-338,131,106,-59,-79,-107,5,-107,13,-109,62,-65,49,89,187,229,-207,-91,19,-61,-20,121,157,-103,-42,-151,7,-23,114,95,17,114,44,-31,-13,-224,-145,23,79,-126,77,-72,-42,-49,16,42,21,167,-67,19,-43,5,63,-113,157,-146,-246,170,-56,15,54,-394,81,-83,-167,-72,45,24,-90,-117,11,-23,-106,-27,-102,81,135,-85,106,201,-99,-155,-136,195,-6,-16,127,-75,-126,10,-68,80,46,120,-79,141,-8,18,-120,-237,26,33,82,-95,116,-50,-95,53,-9,-62,28,-96,147,-23,162,21,75,-131,54,-34,9,111,-119,-72,-133,103,120,-80,-150,66,107,-156,-4,-140,103,-148,93,-210,59,56,1,-7,54,289,-137,-194,2,29,-11,14,231,-30,-173,-17,-133,-47,79,-12,60,48,-183,8,-2,0,-34,-102,110,-126,-117,30,-141,39,42,39,-43,-6,-71,111,35,54,48,105,90,91,11,-118,78,-139,69,144,27,183,-130,-39,40,2,44,154,55,30,40,-151,63,-136,50,24,132,213,-94,-88,103,116,60,91,7,-48,-275,-40,162,15,192,-172,171,-27,-6,163,91,-107,47,34,4,-211,44,30,173,-53,-49,69,-51,-65,20,-32,196,-133,-45,28,-7,-194,-161,-55,-47,0,-223,0,-200,-114,-51,96,-12,-144,-163,-18,-9,-67,103,-18,45,-78,106,30,-75,178,-100,-176,62,-9,111,-76,94,61,-143,-36,-76,0,102,-7,68,148,115,-80,-115,-129,-28,-34,68,31,32,-48,-89,-126,85,-57,-166,72,77,7,-80,-31,135,-208,-14,-147,-33,219,4,76,5,-341,94,-143,-6,224,57,-82,-90,-32,35,-128,-199,-40,44,-88,-61,65,50,-1,-60,-5,-73,144,-101,-113,50,96,61,-10,-115,-56,-90,161,22,-70,104,-113,-139,-92,-121,39,-48,38,55,3,56,-165,85,-33,-118,224,-46,-21,15,169,28,-144,-68,-114,-135,97,10,140,252,-113,-102,-201,63,-47,-141,-163,33,-65,103,82,149,-75,71,-28,14,-65,-18,-2,152,-3,195,-209,153,-88,33,28,9,65,-44,-11,-80,-308,163,-168,-203,-45,130,-138,-31,-146,53,-175,-25,33,169,-55,59,-22,-2,182,-111,-4,12,175,-47,59,-39,4,21,-71,-44,-108,72,123,139,82,-222,52,185,-94,36,-122,97,-87,-154,-3,102,80,-9,-52,133,200,-80,-128,85,75,-148,132,64,5,70,-73,-110,-41,41,97,-87,119,-102,-157,59,-170,-64,-65,145,-150,70,-98,-226,-32,121,35,9,224,-150,-64,-117,-173,4,-89,54,-177,-288,69,-30,35,97,-84,-35,-41,63,59,-84,56,42,-43,-18,-96,-99,-133,-24,-24,86,-49,-25,-23,-34,92,-35,-112,59,91,-14,42,24,-145,34,-8,-73,143,12,52,-30,-48,203,-133,-27,-19,151,-102,151,-76,88,-68,10,-17,56,125,-155,-207,22,-9,-24,-21,300,-1,-195,-22,-52,-79,66,-162,62,-5,80,42,109,-152,41,90,76,-94,32,-37,2,-139,-88,121,-156,39,1,-16,163,-38,-28,-187,25,-138,-212,148,-15,36,-74,-118,96,-74,-189,72,121,-234,73,-82,58,-161,35,-187,125,87,-13,-63,92,98,-126,-130,-162,-10,-83,28,241,16,-51,-31,-41,22,-23,2,21,117,-95,-118,-139,37,90,-135,156,7,73,-220,-93,-40,-16,-138,5,65,-113,41,-54,-163,55,168,0,54,-21,129,-59,78,-53,139,82,91,-307,-17,95,-200,-52,-106,130,-132,-101,-58,-1,60,13,42,153,49,-99,-9,-105,43,-35,120,161,-184,221,65,-16,-138,65,140,59,125,122,111,73,-40,76,-7,-64,-150,4,22,85,87,-121,0,83,-111,-27,127,79,-19,131,136,-57,113,206,-66,16,-99,-91,11,-218,16,-22,98,1,-154,161,30,66,-60,-33,-156,52,9,26,48,181,86,-4,-200,-38,95,67,69,163,-215,-10,30,-65,-32,54,124,-51,8,71,68,-90,-50,26,58,141,152,37,-68,-66,-40,-19,4,28,106,-72,-4,152,-96,54,-58,-51,-60,-307,249,-119,27,51,-198,39,-112,213,-90,-58,-17,-104,-72,152,-6,36,77,-198,29,32,79,-87,20,26,174,38,-272,68,-66,-72,-70,-37,122,46,78,-85,-182,74,-113,39,36,-7,-53,-109,-18,231,2,141,3,52,119,-48,25,73,210,-329,2,25,-97,-43,-10,-66,-21,-211,90,14,-112,-11,54,100,-42,43,-5,-221,-49,-15,-4,188,48,118,-69,-76,-98,33,50,78,161,-26,-43,41,155,25,-100,103,-24,-330,186,28,61,100,-134,76,-84,58,153,30,-101,3,25,145,-1,116,-180,58,-63,-66,69,-14,123,129,33,150,-156,76,-139,63,-131,-289,-8,6,90,97,-67,60,-114,-108,173,-10,-163,-38,-105,180,-151,-15,95,35,80,-90,68,180,97,95,-45,12,-123,-118,32,76,-195,-35,16,-19,2,-14,101,-65,-185,49,-21,32,20,99,-100,-183,-3,207,-11,-243,-14,155,217,126,97,-129,-144,-96,-68,-120,81,55,-72,-139,-44,-205,66,-82,-121,57,-208,60,-84,40,-164,-109,-34,138,51,173,19,-26,4,106,33,-51,-38,-21,37,84,-133,19,11,-17,-79,-24,-95,92,126,-85,-171,150,-187,87,43,-145,-124,-64,77,19,118,63,-20,-76,-154,-24,67,-39,146,-73,37,-54,113,119,-99,1,-57,-159,244,-23,58,131,-280,135,-70,25,91,7,-62,-15,20,71,58,113,-149,3,-35,-51,47,42,141,70,106,117,0,14,-174,122,-71,-221,34,4,77,67,-195,86,-107,29,-81,-36,-61,-16,-104,18,59,118,-107,-46,76,62,-23,142,115,-208,-84,-85,-156,102,38,41,-78,-108,23,-34,30,-26,-37,154,45,40,-49,82,-110,-73,-50,12,-61,-47,-35,79,31,112,-36,118,69,144,85,7,-120,54,-49,47,-90,-132,-12,-36,-35,-140,-8,84,-245,-32,72,-79,-157,-87,-5,144,-110,25,-172,11,23,35,-39,210,184,-17,-192,134,87,11,-88,199,-81,-228,113,-58,89,116,-139,109,-110,12,47,-109,-27,-84,-158,115,-147,5,4,-49,-12,45,-76,99,107,-290,4,-225,49,-16,106,68,42,-25,74,-28,-63,35,-68,46,111,-171,-96,-80,153,22,28,-87,-27,58,-43,139,-204,42,240,226,190,-83,-48,143,-76,30,-30,-83,-159,-362,40,168,23,71,-301,114,-121,70,205,53,-149,13,50,94,-128,70,53,154,25,-140,122,114,-19,179,32,182,-72,129,36,-101,-124,-69,44,-20,-113,73,-78,6,-221,173,10,-157,-123,-136,-6,40,102,71,-36,-105,31,-118,73,118,48,-56,78,42,80,105,-60,110,-123,-184,147,-43,88,107,-295,43,-244,174,33,-53,99,66,66,-77,182,-42,38,-3,-97,-50,7,-65,-128,159,123,-111,78,7,-210,34,-11,23,76,-42,184,29,-218,-27,-252,6,117,91,164,69,119,-31,-15,-68,-100,127,-133,-8,173,-160,78,67,90,-110,-36,200,-85,-39,30,60,-12,-23,-61,123,36,29,-92,20,-59,139,-33,-26,114,-29,105,9,39,33,-30,-32,-44,-81,123,-206,-36,-58,296,14,-235,30,76,-76,-22,82,46,204,-131,148,-57,-4,-6,11,126,73,157,-2,244,-70,76,21,5,29,-26,-19,-97,139,21,197,-37,9,-124,-134,44,-70,-130,-58,75,-74,-281,1,-267,-155,-32,21,-84,-172,-204,155,-151,-74,-28,18,-97,6,-63,61,104,-226,-8,-60,-66,-139,125,110,109,-64,-6,63,-115,52,79,34,-43,31,87,-66,-116,-21,-140,266,-69,37,-186,61,44,2,-25,153,163,-86,-77,87,-76,-55,-26,170,-173,-176,121,-57,-1,109,136,110,-29,43,-93,-19,-121,-142,-23,201,79,143,15,-131,-67,-11,108,34,9,-26,-4,73,-132,-81,-2,163,-32,-331,48,-68,-89,5,-78,-8,-48,147,-70,-224,134,57,-62,-10,-35,-8,7,-50,-59,-49,-87,-31,-9,-127,-26,-218,19,36,15,24,47,64,66,60,-81,124,-167,157,-47,12,66,-176,-160,-3,-104,191,-16,237,0,0,17,37,-45,153,87,-66,-169,33,48,-26,-19,17,62,-329,98,-62,-48,58,-60,87,112,87,255,78,-53,43,89,42,-46,103,-12,170,-87,-128,157,-53,-133,119,151,95,18,67,-279,-17,-55,-57,116,13,-37,-20,-125,53,-179,50,202,-191,-133,88,-58,210,-18,105,-143,10,-1,-6,13,145,203,71,-136,-13,24,102,-120,123,-113,-268,86,-29,65,58,43,38,-86,104,-52,-188,13,-17,-84,-21,27,67,14,-41,-129,-56,-71,120,-6,-99,-81,-105,-91,-3,60,0,-25,38,155,96,-54,14,-160,106,81,-115,146,143,-135,114,-140,-3,-166,79,-162,196,76,18,106,244,190,128,-41,95,-136,-16,28,156,-83,-28,-34,-53,-117,-14,81,32,-46,171,63,19,48,36,78,46,-64,-2,98,-75,73,-113,17,96,81,182,-78,-52,-8,227,-88,69,107,165,-168,32,-37,8,-17,-28,69,87,96,-73,43,0,-111,23,-65,80,-204,70,35,0,65,38,196,71,-116,11,-15,131,-165,106,10,-5,128,-27,88,-6,99,-48,-95,40,-14,-83,63,7,113,-131,35,95,-25,118,-95,71,8,-29,-75,100,98,30,132,56,-176,5,24,-47,13,-58,44,71,-160,-31,-186,42,63,-3,51,-11,71,-62,248,55,285,-190,185,-116,-30,52,6,166,-81,-48,-24,74,-123,-115,-196,-119,24,-62,67,66,-103,-70,-26,106,211,94,-58,-45,-69,-16,-33,46,-146,214,-6,134,-72,94,-5,-10,169,82,-128,-78,-17,-14,205,-222,-34,-74,2,103,-142,13,-89,26,6,-66,-97,16,89,169,87,104,17,45,-48,29,126,17,62,-16,-90,129,-78,7,-133,49,71,-312,155,14,61,-39,-46,172,78,-72,185,22,-13,46,71,102,68,75,-21,-37,-89,-49,57,-61,61,138,85,133,-37,64,-46,-13,46,-196,57,5,41,123,-132,-92,-121,51,135,-56,-100,79,-1,98,82,85,15,115,76,2,73,97,39,69,23,54,-106,-39,106,234,-28,-70,225,-127,-11,45,-147,19,-63,-3,-86,36,-40,202,200,-121,142,-143,69,0,-54,135,143,78,-40,235,90,-177,83,-169,-130,-143,-169,-116,-181,25,182,-242,-306,-131,-139,71,25,-85,210,-5,62,-23,36,123,27,0,-12,-8,16,-30,33,-33,-26,27,-249,120,-94,16,-115,-104,-7,-61,17,-39,-185,107,-117,-19,172,-84,-94,-96,-31,171,-69,40,-19,-92,54,68,59,43,114,-59,-40,-54,-111,54,-9,-13,-207,-217,64,-49,-9,18,-193,130,-49,3,44,-26,28,61,133,43,82,57,-29,126,-104,7,59,-5,-118,289,88,179,-3,43,-167,117,-77,-69,101,4,23,43,-47,66,-205,-134,99,27,29,-22,25,57,97,15,-49,52,66,101,111,26,115,-136,107,113,-124,-37,-84,-98,-124,-125,131,-80,-52,135,-170,-63,-33,7,7,14,117,60,2,119,89,35,183,-29,96,-152,25,-37,-87,36,70,66,-74,-17,-94,-152,-86,-50,69,-37,9,-232,-133,-72,1,-1,47,9,-34,-20,9,113,80,88,-24,-9,-61,-44,44,21,-39,-23,-40,211,9,3,-114,58,-26,-335,125,-29,52,96,-150,154,1,164,-28,-174,-48,-107,-129,-18,22,-46,49,-47,-10,-80,-51,151,87,-138,102,75,84,-103,8,-121,-203,0,28,35,90,168,-78,-103,2,-72,-1,-28,78,143,29,-215,43,40,-111,-50,-36,26,205,69,139,-109,12,-65,-171,-119,-6,-66,-45,-262,-127,37,101,-30,-319,116,-215,100,216,61,-33,107,59,148,-29,-52,3,122,88,-148,97,95,68,84,-71,70,160,56,41,72,6,92,102,26,-164,121,-241,-36,-163,62,19,-38,68,32,211,16,192,46,2,71,-41,-32,-35,33,17,-166,143,101,74,-35,-130,-105,-135,-341,-174,30,20,-9,-129,0,-270,47,67,3,31,-41,83,-140,39,21,60,107,76,-22,-50,0,-98,111,34,146,135,-24,-139,5,79,169,63,59,20,-30,-27,84,-43,69,36,43,130,119,-69,177,-45,85,-6,-100,56,102,148,37,120,161,0,17,77,152,131,29,95,1,22,22,-108,29,-30,-100,20,-174,160,127,-78,68,-65,-20,5,-6,-20,-55,176,-50,67,50,346,-9,-68,-27,-59,73,-32,69,-110,-166,-158,151,-112,56,-78,147,-102,52,-272,-65,94,113,119,-180,113,-61,147,-108,28,28,22,30,-189,94,-20,-49,164,25,-60,-107,124,-69,-21,65,-60,-211,4,-70,-72,-35,11,-182,-47,-44,-120,44,27,4,92,-28,-58,36,105,-24,105,102,-8,20,-151,76,-80,49,-48,-197,47,-37,107,-40,41,55,-79,81,149,26,-134,20,-257,117,-119,130,-83,81,-34,34,81,84,294,5,-44,119,-184,29,7,126,17,-210,52,-67,-38,76,-10,0,-17,-24,110,-29,2,60,75,9,111,53,47,108,-46,62,21,-85,25,10,23,73,182,5,-32,-19,89,-55,125,107,182,-64,2,77,-41,158,34,-178,-1,-10,-36,-86,13,-54,38,-23,-5,-50,-57,25,-92,70,-5,4,-19,28,-118,-137,-26,27,152,-57,10,23,-173,43,-101,36,67,9,-18,91,88,-11,246,26,84,-32,-228,-103,46,-1,-149,74,-3,180,146,-17,-226,-27,150,-286,195,-81,41,35,-94,-1,18,80,159,81,26,155,125,38,6,122,-30,77,25,-106,1,95,-97,147,78,59,53,148,-25,-53,138,-11,62,-93,-198,171,-257,18,-136,155,158,11,-90,105,-55,213,19,149,-35,50,-12,39,59,92,52,72,-21,146,-49,12,-134,139,-6,-209,150,-81,118,40,-55,-5,-30,70,-103,-57,32,-34,64,-51,130,-21,74,-62,63,-47,66,7,-14,-118,28,-78,35,-97,39,-29,-76,64,57,-3,-38,-33,-214,-40,-19,51,-162,-68,161,112,103,-89,39,95,167,1,79,25,27,4,-48,17,86,-172,50,166,15,-152,11,23,27,107,-99,-40,-128,2,-47,25,58,-86,-54,55,-5,-50,-139,-45,132,-132,54,-160,47,-75,-26,-56,41,0,77,62,-1,-64,-18,58,167,69,40,200,32,38,20,74,-51,27,69,-62,118,30,-33,-24,139,-23,-29,21,46,-74,-28,64,-81,-116,33,144,-23,35,-21,112,26,52,-56,20,-40,39,55,-32,4,-1,0,-93,-72,-102,-61,-31,11,99,71,-13,35,-67,164,-197,159,-101,-23,-63,84,-77,-131,-57,-32,-17,19,108,104,-60,159,-87,-145,-126,-24,7,-48,-83,-3,62,-66,51,256,-38,15,20,-24,-32,122,-109,-193,161,65,58,3,-70,-45,43,202,187,39,141,53,30,6,63,174,13,-39,-70,109,-79,42,-40,73,-313,-97,79,92,9,-23,-121,-17,-31,-152,32,-77,130,-119,-9,51,47,-80,-79,54,100,-110,-51,30,-67,9,55,-34,-79,93,119,50,-49,-47,-51,152,-26,-3,-106,-7,-98,-126,82,-44,89,-79,-27,93,88,3,71,95,-123,91,90,16,-42,-19,-19,-26,-90,-58,50,-23,-120,0,101,117,-197,109,-65,84,-117,59,0,-11,-6,-24,-86,-42,210,113,-117,13,-31,-6,2,10,-12,-5,-23,-51,23,93,105,-11,-60,19,97,6,83,-52,64,102,103,33,-149,57,-61,4,-42,2,262,-19,-47,-75,-77,167,-48,-160,21,147,237,37,-159,90,-325,-16,-98,59,-6,-159,-126,341,-119,-271,13,-2,192,41,236,-13,54,75,-118,106,122,50,35,-54,-12,82,142,-85,-68,103,26,-157,1,-37,53,34,-55,-66,102,134,-84,-114,-67,2,-94,-67,-9,92,-33,14,57,-136,14,14,11,-37,20,103,-19,-85,-38,4,-57,36,148,29,-32,69,-1,70,15,160,-43,-19,-69,-73,-112,-170,-111,12,33,80,105,72,-56,159,-66,62,44,6,-57,19,-89,-1,-84,25,65,59,-11,33,12,79,-173,-2,-39,150,-4,76,-1,88,33,-84,-119,33,174,-2,4,37,154,-61,13,208,10,63,-104,218,68,141,-148,-54,-7,71,-86,-72,55,-3,-160,-173,99,-189,-15,-84,-140,22,135,-14,118,-425,39,0,-55,-75,-109,184,83,9,-25,61,140,-25,50,-61,18,-66,-38,13,94,6,66,138,-15,-4,-116,47,-5,-3,-147,122,57,131,-114,20,-18,-65,-56,-37,-49,21,-30,37,-22,55,-14,22,25,-15,80,108,-92,23,-116,213,-131,-101,-70,21,19,-11,-11,45,165,25,32,30,36,-72,-95,44,23,19,-31,71,-201,107,-22,-17,-231,-106,141,-86,16,-84,171,-6,-51,-101,-52,-113,113,40,-30,95,-13,-201,-77,-8,30,-97,-122,-63,-286,-117,-65,-19,32,-84,-102,-73,-268,80,-131,-150,-92,2,-43,176,-37,123,114,-130,-47,-220,109,-127,293,19,131,-76,-64,45,26,-76,9,-59,72,-100,8,-8,62,10,-75,-6,115,102,21,-71,75,2,74,39,5,-54,48,-34,13,33,199,141,-54,-100,162,-95,-7,28,38,77,-32,100,-181,14,154,-41,20,-88,114,-76,36,24,-82,24,0,-15,123,95,-17,-39,8,123,-87,-31,-23,81,-53,-52,95,89,-95,10,2,-94,119,-42,99,-68,37,5,25,12,-90,69,-29,128,-47,129,3,-6,-133,-57,7,107,85,-59,28,-48,-68,-36,-20,86,-104,30,29,151,85,37,158,2,-57,-54,134,-131,-131,-117,-232,60,26,-44,-31,93,-110,-39,-34,20,33,65,-114,-72,-271,-44,47,-161,-135,77,-79,-165,40,-26,-82,-77,150,28,-13,-39,-34,165,-240,58,-89,207,-77,2,54,-80,94,78,3,13,-65,-32,-1,48,36,135,-25,87,-184,187,72,-46,102,-2,16,-25,54,-97,23,-34,-6,-64,-58,-74,-52,-50,-86,-199,28,-10,-23,20,-113,-16,75,-128,-76,87,79,31,20,109,85,81,-143,21,-46,-80,-75,-75,14,-14,-130,104,193,-112,-47,-29,67,64,80,-7,34,-105,75,150,-17,-51,-148,97,58,73,-100,-82,-7,33,38,93,55,31,43,-66,-33,-67,-32,172,56,-1,-188,70,85,-30,-15,35,138,-20,-63,-20,45,-122,-8,63,-90,-13,2,18,-128,11,-26,39,-17,104,-3,111,-10,-53,-142,43,-83,95,-101,-66,184,-28,-47,169,103,63,23,119,193,82,-87,9,61,132,-98,172,-190,65,24,-67,-146,-96,-28,-35,59,-27,66,65,-175,-103,-175,-84,19,-35,15,81,-216,-37,-55,71,70,-82,-133,29,-59,24,-3,103,-121,91,37,82,-77,-44,-112,61,13,100,-205,168,-93,-233,-67,-37,88,14,7,85,95,63,76,89,-85,126,101,89,35,10,84,-70,-49,-81,108,100,-38,-21,35,-10,46,127,-37,-59,0,102,41,120,-92,56,-62,56,311,29,48,-258,2,-57,-10,146,-2,-74,59,20,-226,68,82,11,-9,84,-43,87,34,152,-150,123,36,22,8,-11,97,14,-94,74,87,16,55,13,247,33,-72,71,89,60,-200,94,-43,-10,-21,134,-293,-91,-52,-67,101,141,76,-15,-179,-108,-175,-171,111,-74,123,-34,36,-18,-130,9,8,-185,-57,210,88,130,-167,-37,-32,152,75,187,106,14,-49,-41,-22,13,-129,144,51,174,-243,217,88,-58,-67,12,-53,-61,68,-50,-124,193,-52,-144,-97,55,46,-101,-141,72,-196,11,77,-127,101,123,23,-82,137,59,-67,145,239,-35,114,18,-38,59,125,189,51,-15,-7,-21,151,127,-109,-31,-8,-58,-106,85,0,91,45,59,-70,19,-63,162,-197,127,-44,101,19,27,71,75,-98,64,130,85,-23,-7,-141,-19,16,-32,-120,-14,-92,-34,67,-35,46,-35,-73,150,-79,115,-165,113,-135,12,-148,185,-46,-81,3,-53,18,-107,152,112,-26,80,-52,-132,-66,198,80,56,-63,3,-129,78,-35,70,79,-2,-37,95,68,124,29,164,-22,171,7,-51,163,-41,-4,74,45,-39,-120,-20,91,68,114,56,-220,11,-201,107,-132,-143,14,106,-92,-23,65,6,-127,57,-138,122,2,-120,52,-2,17,-220,-41,190,-66,56,31,-212,-18,-37,-20,112,-133,-55,-142,41,-137,29,106,111,-86,16,48,17,-71,33,-220,277,-179,-40,-77,14,151,-74,-103,71,126,208,52,65,-146,-23,-32,-87,-171,-21,-39,75,44,0,207,-10,-53,-16,86,113,-191,-71,-156,69,-89,107,6,182,-51,-42,-49,-38,151,-13,-85,89,-160,18,23,61,8,-50,-17,-53,-82,-27,-4,54,-33,56,151,29,22,-184,-19,179,56,198,-83,105,40,-134,14,47,82,199,-95,-154,-103,0,-38,23,116,102,-31,3,-30,-114,-200,-112,127,103,48,-134,-24,16,-156,-232,174,149,-10,28,-4,23,156,-115,245,56,247,1,-15,11,-55,133,-24,37,-147,34,76,20,14,27,-138,2,-78,-149,35,221,-135,131,15,14,-57,122,-107,-47,-16,115,217,96,-72,0,-61,-69,5,100,-80,-59,-139,-6,-29,-101,164,48,-93,-36,-2,73,-238,-31,-89,173,-93,177,-118,19,-140,-65,-3,-24,55,132,-6,143,-124,-41,134,-105,-86,52,-104,-28,33,-90,-149,-89,76,82,-11,10,-186,143,-93,104,-169,88,109,-43,33,-79,-10,-111,90,100,54,-88,190,-138,-31,178,56,34,-201,281,-128,160,-194,-129,-168,-39,-72,84,134,246,-206,61,-85,-164,-338,-55,83,14,111,-63,131,-172,56,54,-85,-5,-51,67,-43,-5,18,90,-10,-136,131,2,59,60,-92,88,-70,17,-16,182,-27,183,-87,113,-72,-65,-27,142,212,289,-181,-20,-38,-96,-14,-86,-112,6,-102,-34,-21,-62,29,84,-96,72,2,228,-188,-46,-162,140,-87,73,90,91,61,-146,-110,135,205,50,62,2,109,28,0,1,-15,-53,-90,34,-264,-34,31,111,-308,-34,123,85,9,189,-29,43,-257,0,-103,-161,91,-4,-66,105,7,-50,-70,-51,-30,80,10,14,6,16,-25,-1,-30,1,-190,-75,-62,44,-156,-58,-153,309,-49,3,55,6,127,13,-26,-190,73,4,-40,-8,29,-44,-76,115,11,-90,-117,-31,1,-126,-54,-19,-59,27,44,-39,140,138,-80,-240,138,78,12,165,95,7,10,-34,-87,21,155,182,23,-70,33,-24,-23,82,-62,119,50,52,-222,-91,31,-25,-107,93,35,37,-54,37,-170,145,-83,-42,-170,-54,1,48,-128,13,4,28,7,93,-169,-39,137,-184,-100,-12,65,-158,45,-148,31,-100,151,57,26,49,-158,85,-45,78,-42,89,130,27,1,-114,-39,7,33,-114,59,-12,-146,-29,59,4,-57,111,-77,170,56,-119,67,-175,116,6,15,1,-186,-145,-61,5,-15,16,-18,167,-115,-39,-55,-50,150,-107,60,127,-44,-110,87,-54,77,84,193,-156,241,-77,-63,-154,243,68,-26,65,-190,-57,-258,138,122,5,219,66,-247,-154,-97,2,63,-93,-27,-50,-81,80,-3,-101,-29,87,-88,92,-54,-100,-25,-93,99,67,126,-37,-65,-280,55,226,40,0,71,28,-81,-127,-88,48,103,151,2,-197,62,-53,54,261,12,-43,-18,14,-46,127,-41,12,-91,74,-29,-148,23,145,-276,188,-34,30,-135,-13,5,-2,-8,123,43,73,-33,29,-20,-24,22,74,-55,-65,-112,-10,-84,158,-18,84,-40,-28,-92,136,-69,94,-226,224,-90,109,-229,102,118,-76,5,109,130,83,-98,61,-117,-16,99,33,-82,-157,-44,-209,-133,-15,-47,-17,-51,101,73,-5,-202,-10,-118,118,-46,139,80,-164,-19,-222,102,148,232,127,108,29,54,223,-89,47,9,-111,-81,-62,-51,28,-51,-80,-233,89,69,56,-36,42,-80,16,-336,-14,-109,-117,-6,-24,-67,0,100,51,-176,-35,-34,12,37,3,-67,12,-96,-109,-43,-68,21,77,-59,74,23,113,-162,26,-109,104,-86,129,-3,-59,108,-113,-74,76,233,98,45,58,-72,-41,47,-163,-66,29,-7,-72,132,-127,8,14,120,19,29,59,-49,-52,97,3,-53,2,44,204,-112,-71,3,-37,164,180,-21,47,-57,-90,88,35,-106,-24,-108,-20,-103,74,43,49,5,126,-44,119,-185,119,-230,237,-144,4,-50,64,160,-47,-82,33,162,184,0,76,54,185,-64,136,70,-39,-149,82,86,-65,50,85,-256,11,-54,-52,36,163,33,-119,-170,-84,-191,-83,52,-63,110,26,-8,68,-241,56,-170,-110,69,-28,36,-148,-8,-116,-108,190,12,-18,29,-8,-95,103,-107,65,-131,63,-72,215,-27,368,28,-42,86,-55,119,155,-143,119,-76,181,-52,-137,-251,91,37,-185,-3,-4,-11,-55,59,22,133,3,-8,-327,262,-70,-5,208,74,-193,109,-10,71,-78,-87,-1,20,-207,-150,-12,50,-65,-94,-91,-185,-107,-181,66,86,28,-29,-77,57,92,-120,4,-208,232,-134,111,24,6,174,-32,-42,81,135,245,-24,107,-47,2,-73,61,-121,-3,28,-32,194,-193,23,-104,-50,91,-69,-21,-100,29,-106,-25,-18,-7,175,-13,-97,-1,-93,-210,86,6,52,40,-72,-80,47,-117,42,33,20,-52,-101,116,-275,14,119,11,48,0,-25,-165,-189,60,-17,-5,191,291,37,10,96,-40,16,108,-158,1,60,236,176,20,-173,11,-111,-48,-63,-141,63,-140,147,88,-35,77,-221,85,-230,82,68,31,85,62,-119,-86,15,32,80,48,58,12,-58,12,87,-35,-178,-166,-27,-270,43,-165,149,70,-83,66,6,5,-131,175,-106,111,-143,42,133,-61,56,-194,-47,-87,109,184,68,91,0,4,-53,-26,-167,-5,17,23,15,-153,-61,-127,126,-115,170,192,-188,-38,-20,54,-82,-54,97,84,-229,32,-125,-53,106,87,78,122,-194,-10,157,-177,-43,-48,206,-132,-69,-189,-38,4,26,112,31,96,-36,-73,-139,-37,27,128,106,244,-74,-165,-60,-137,83,124,18,51,-52,34,-139,61,-31,119,-100,-130,133,17,-161,-194,174,217,47,-71,-83,-71,-55,161,1,-104,-10,14,196,-61,-114,22,107,-15,46,-197,-180,-110,-42,-24,-113,-88,6,108,-81,-17,-103,48,106,23,-23,-55,32,51,-238,339,189,132,-35,-30,-37,-77,130,68,146,193,-64,49,-78,56,6,96,-144,-141,1,-139,10,-216,33,-33,-89,75,-78,-6,-99,203,-136,105,-59,78,225,57,-23,-140,-100,-106,29,145,9,153,-42,-11,17,-58,-154,-115,80,-85,-7,-294,-93,-9,96,-45,56,290,-155,-40,-107,-20,-47,29,105,12,-219,18,-131,-17,157,-2,100,156,68,-30,36,236,-14,-77,-156,75,75,14,-54,-107,-249,57,-118,-217,-46,230,-227,184,-36,8,-170,179,150,-83,203,82,-15,1,40,-36,13,-7,-113,80,-147,37,95,-30,-12,-282,67,-142,149,-47,19,-96,-61,10,-109,87,216,-18,104,144,-204,-174,14,102,40,21,102,-157,-67,-31,73,-34,-127,-87,48,-110,85,-240,-152,0,19,68,32,253,-226,18,-65,-67,-8,31,206,105,-139,-84,-51,-103,256,-28,40,157,-130,211,121,31,-37,-92,100,-35,-17,-113,164,-72,-136,123,-9,28,1,248,-155,-76,-92,-41,43,-75,65,-223,80,-56,130,292,-52,94,-259,76,42,205,-60,71,80,-51,138,-46,-116,-51,253,270,-37,122,-330,94,-293,-189,125,3,79,36,69,-220,51,-67,230,6,102,93,-73,120,33,-196,-47,-45,33,-104,37,-27,-99,-17,55,-59,160,-49,-83,-369,77,56,-47,19,167,-151,-43,39,-2,140,26,62,69,-76,-137,-1,44,-7,-150,-42,0,-102,-2,-178,-18,-48,-19,76,34,41,-69,87,-163,59,-68,90,36,-24,-156,-172,4,-27,32,182,186,0,24,-148,42,-166,19,0,149,-30,59,-67,-215,-240,214,22,-10,2,-15,-66,-124,-130,-2,-112,173,40,-175,111,-23,-40,-167,-166,136,110,81,-55,-82,-91,-80,0,83,-106,-101,-99,1,-79,80,-88,236,83,-32,-161,-46,125,58,-190,132,50,-84,110,-114,-7,-13,-200,59,118,-34,-295,29,8,-29,130,200,57,70,78,-205,-98,104,46,-65,77,-129,30,-266,54,43,-138,99,135,-110,107,-53,21,33,-306,107,-13,-86,-44,-115,64,55,121,72,130,86,-141,65,57,78,-16,85,-173,49,43,167,-58,259,-28,-112,112,-38,81,-106,-147,-62,-121,120,-49,-103,-26,56,110,-40,-97,-125,-49,-158,40,-6,-36,-59,62,-65,29,-119,127,-286,231,-168,-95,63,247,147,-67,88,53,222,224,57,35,-139,-22,138,8,-87,-161,16,-108,-117,-114,-122,-70,143,16,79,210,-170,32,-88,119,-57,110,62,164,-152,-148,29,-12,156,106,-19,168,-195,83,112,50,-197,-131,25,-161,-14,-162,73,-37,-4,124,-49,-14,-67,191,-136,9,-42,-6,235,-2,-1,-224,-81,-107,79,163,133,62,-90,224,18,-12,-37,-67,25,-46,28,-221,75,7,-156,163,-16,40,-16,151,9,40,-105,44,-141,-131,-45,16,65,-22,31,140,-148,24,-66,25,111,-113,-143,-165,-2,-240,-52,-222,82,62,-125,127,-51,-3,-90,111,-174,35,-78,40,186,57,80,-186,-26,-131,173,207,145,-9,-61,0,64,-299,4,-61,184,-31,55,-111,-117,-19,82,-76,95,8,-59,-246,146,22,59,-77,107,-13,-167,82,-10,-55,-84,-52,2,51,-12,37,47,-10,-179,-244,16,-131,69,-215,75,-82,-10,-34,32,146,-222,162,-164,106,-105,103,154,20,-56,-66,-101,-64,41,253,32,136,-36,178,75,63,19,-109,-109,-41,83,-131,30,-3,-311,50,-15,-206,-15,160,34,-69,-82,21,-134,-61,113,-43,75,14,42,109,-110,107,-228,-59,166,-71,-166,-366,-7,-150,-243,-24,-93,-52,51,0,93,220,-252,-38,-111,161,-152,108,-10,9,35,79,52,-9,25,194,47,240,63,248,-3,-109,-75,34,15,-127,-86,-267,132,70,28,34,116,-46,-130,-216,155,-108,156,77,157,-278,-100,-59,-71,-116,10,-37,-44,-551,-126,90,89,-139,-107,-142,21,-202,108,-97,63,25,-65,41,143,206,-202,-8,-181,61,-53,124,148,109,48,-197,0,-16,103,71,-7,135,120,-116,-151,-123,-104,32,35,201,126,-76,23,-78,-41,83,-183,-7,-38,-34,-89,1,104,-173,54,80,-165,177,-112,-54,-22,-278,112,4,-216,-106,182,-153,-89,-242,146,-63,-182,-2,-107,-24,205,-59,-152,83,-110,80,-158,-13,-52,78,194,-125,-84,-82,29,-16,39,8,85,193,111,127,36,49,-69,-19,-55,-203,118,-77,-149,38,117,-153,19,97,-45,-59,73,43,78,-69,227,60,-183,-216,-8,120,-153,110,170,31,-138,52,103,-4,-179,-396,24,-194,54,-267,59,169,27,46,124,131,-241,66,-195,-24,-5,65,259,6,-117,-147,-101,-163,94,118,71,168,100,44,-88,-2,-151,-71,126,-14,78,-117,-45,-216,109,-144,105,259,-86,-190,124,-59,-28,-261,125,-11,-295,110,-75,-76,111,-70,207,2,-365,0,74,-25,-68,-118,136,-90,-44,-150,-68,69,121,5,178,244,-128,-42,-215,-193,29,133,25,65,-205,-67,-31,-66,195,-3,26,59,-110,-192,79,-152,89,-29,-89,74,31,103,3,62,156,206,33,138,-165,61,-198,-121,-90,157,0,199,-9,111,-46,71,53,-138,114,34,-112,-69,-35,118,-140,-174,-19,-11,116,-43,-113,103,14,-34,-11,-142,-164,62,-5,-181,132,162,101,95,-150,-41,55,29,-44,-166,166,127,-83,-98,-102,92,-131,-21,127,-46,18,-193,-97,141,24,83,37,103,1,-21,-130,-119,39,69,11,27,-166,-3,-101,-16,173,-163,66,153,141,-150,-123,-116,-93,-3,-79,74,135,-39,-115,-110,39,-1,-26,128,-48,-41,-31,59,129,-223,224,-89,-156,262,-124,-73,-101,-379,144,-45,-49,31,158,269,-87,-24,-161,-202,-21,-11,39,36,-88,112,3,-78,-45,116,-196,37,-115,54,-49,183,17,-234,142,-81,81,213,-21,254,148,-365,-34,-57,27,53,47,8,-90,44,-96,35,233,-69,25,71,30,-141,-112,-238,255,37,126,69,-223,-51,-35,-86,43,-310,102,-107,-61,-49,5,-15,-127,-180,152,-78,167,-219,-91,-115,71,36,-18,220,-204,-62,-92,-27,15,-42,176,78,-320,51,-79,-56,152,-152,135,81,-272,218,69,39,-25,-147,-29,-48,-193,-65,98,25,20,162,47,105,0,90,-49,-182,130,50,73,-68,-31,-281,24,-41,253,184,-48,79,-108,-173,-75,253,3,112,-57,70,116,132,-110,-207,127,114,-8,231,-188,40,-345,172,26,-34,-163,-4,51,47,29,31,327,-229,292,23,-111,147,21,-186,-93,-57,302,-29,-191,-159,35,-39,46,74,227,74,28,-281,253,-31,71,37,206,-246,-132,42,-45,7,42,-160,84,-186,-158,17,30,124,-143,-149,48,43,-130,-30,5,34,31,46,-19,33,-10,53,-121,-7,126,140,78,42,-209,-129,4,-137,73,31,140,99,174,-217,-135,77,18,86,-100,156,171,68,-225,-106,120,-59,-107,24,86,5,-125,-113,139,-188,54,-88,-119,218,59,-23,-48,-340,190,5,197,98,-66,-33,-96,-81,-32,-42,26,-55,39,-290,-60,-131,-43,78,69,-74,16,-75,33,-375,166,-329,-211,139,-31,58,-30,-268,306,-129,217,-194,-51,40,-137,-57,-130,94,115,72,-163,-270,-32,-40,-259,255,-33,42,-164,170,64,-274,72,-156,-24,112,68,125,134,-262,125,-85,-32,-209,-206,151,35,219,65,2,42,105,-187,60,144,-118,12,1,156,-94,-19,-174,340,-38,27,151,-131,41,-148,128,-213,-262,143,-200,-43,-72,135,-81,-69,-149,72,-95,111,-153,11,-118,41,121,-103,117,-147,-77,-133,-21,70,-186,209,164,-180,-12,-77,-115,42,-70,134,60,-112,47,113,66,-86,-179,53,-179,-19,-270,-69,52,125,-8,53,319,-215,58,-216,-62,-21,28,181,38,-60,-51,-19,-168,165,114,0,146,-105,-107,15,181,-103,20,43,-52,125,-65,-177,-26,85,7,32,30,-33,-33,-112,-208,78,-54,175,0,-188,-155,-139,-92,73,-175,189,-52,-116,32,-99,137,128,104,-112,-89,17,-22,-220,-9,-62,126,56,-151,21,81,69,-148,-20,-21,-12,233,189,-129,-24,-55,83,-67,-96,48,-57,-15,70,95,-135,-35,115,-26,159,-197,-71,-42,37,3,16,111,-140,10,-114,0,-10,2,192,50,-286,10,-127,-115,102,-33,141,62,167,-4,-205,-108,52,49,142,5,-11,-78,-141,-158,-45,-87,46,29,12,-93,139,-60,40,-148,64,-291,-199,270,-6,107,17,-279,181,-65,-35,-20,109,-100,-99,-203,176,-161,166,-274,49,11,10,-43,71,187,-111,-64,-175,-89,-75,117,111,-75,-123,-30,-100,-41,87,-70,138,8,84,-45,-114,88,73,114,-25,-83,150,21,-116,92,-90,52,-124,-282,122,-54,-55,-127,-54,76,-61,138,158,-154,-72,42,-86,15,-128,43,-28,76,-46,-25,-164,-388,126,-293,166,-177,99,-155,49,91,5,236,-263,-94,-65,-169,-90,100,44,-130,-107,192,58,-63,190,84,166,29,-159,251,-64,-53,43,199,206,34,18,-18,-157,84,-82,100,101,20,-4,-93,91,-80,54,-67,153,-166,-52,36,-9,-75,77,-106,8,-279,-250,59,-20,-139,-166,-282,151,-123,120,-141,-6,2,45,69,155,235,-63,-65,1,-141,-40,46,274,-11,-154,23,13,30,110,-4,-36,-25,191,-169,-271,126,41,97,-107,208,-61,67,-38,-231,-64,-110,-23,-21,-3,70,-144,217,212,-181,-64,185,-120,93,-44,-11,-6,-248,31,-116,-14,-22,-117,-33,27,-34,-55,-160,-125,-23,96,-101,17,81,77,265,-120,-127,-77,79,80,49,-14,-23,-10,256,48,-9,78,-123,83,-120,193,35,-205,93,27,130,21,151,154,-150,-274,28,-104,-74,-17,-51,43,10,68,187,107,-78,157,-33,-47,304,-2,-78,68,0,-39,-116,8,-124,-177,-88,-134,-77,57,104,167,-56,-46,-177,26,-113,52,-47,-36,68,-3,95,88,-127,94,124,-101,237,-82,-59,125,-174,-13,47,182,36,-178,140,-10,42,9,122,14,-102,34,-142,54,-52,-55,176,23,-58,243,-34,37,-218,-30,-55,-293,118,-74,90,-2,-247,180,-143,66,66,-64,52,-85,-222,141,-46,84,50,-200,-92,63,59,13,74,-182,-54,-38,-197,-2,115,-25,-182,-216,140,-36,48,193,-94,282,-57,-97,-202,-94,-118,-35,95,70,-134,60,-68,-234,83,180,176,-77,63,-60,31,18,-292,221,275,-183,-117,-78,-137,110,-17,265,-197,-17,-149,-21,14,-148,42,-36,115,64,-107,-47,44,-59,45,73,-73,89,-4,119,-106,86,-391,26,-33,6,-193,-159,239,204,-53,-81,-401,37,22,96,-133,-256,36,5,10,-46,32,-63,-35,-162,-145,-3,-73,-8,7,-24,71,-21,6,149,-131,-50,195,-200,49,-47,-65,-15,-211,85,-34,131,32,-173,51,-81,44,56,-35,128,-66,-129,-141,55,-2,-10,125,24,-6,134,-105,16,-90,-72,3,-276,226,-48,91,0,-202,144,0,-3,-68,3,208,-129,-64,-69,-245,56,10,-159,23,-88,67,170,-42,-62,-111,-134,-123,172,177,-156,140,201,-71,-33,-84,135,74,64,39,160,-218,-71,-5,174,70,69,74,26,204,-295,92,124,-228,-73,4,40,-66,-12,-54,168,-69,-58,-21,-175,153,-153,56,-50,-199,22,-93,12,-98,-218,32,-147,48,87,28,166,-87,-161,-267,179,-33,5,80,40,-78,96,-125,-33,-90,19,-115,-273,244,-45,109,57,-298,182,20,41,7,-146,110,49,91,-41,46,-3,-11,-83,-14,-7,-64,-46,-64,19,-72,-168,-93,86,-60,-10,100,103,-44,45,-104,157,-63,67,27,80,-208,-6,227,94,84,30,16,73,134,-33,-70,94,113,-68,141,-129,23,-5,-66,-121,-49,7,54,-5,108,70,108,-62,-131,331,85,-34,179,-77,-101,-5,110,84,54,-51,-26,38,-76,62,20,171,-16,16,-153,213,-79,79,-41,72,-145,-225,84,-32,18,109,-259,42,-178,109,22,-270,-18,-92,-36,14,183,16,-45,-165,-108,59,-57,-103,3,37,18,-107,-13,53,-149,-59,173,-141,94,1,-79,56,-214,9,-57,273,-154,-162,71,122,52,-14,94,7,120,-82,-55,4,72,48,-95,151,93,-55,178,-5,-167,-189,-17,-63,138,-36,158,-80,-152,-60,-131,163,152,-57,123,52,72,30,64,221,18,238,-139,-27,32,-108,157,11,16,129,-341,-42,-158,-70,-98,-358,193,-56,44,135,-208,167,-144,145,-110,26,205,-12,-27,-36,37,63,-58,-8,-12,-92,104,-32,9,-138,116,-43,249,-239,-173,-97,-27,-183,123,104,54,-29,-141,257,-15,27,-204,-199,64,29,206,-127,50,35,281,-252,-150,71,-180,48,-209,148,52,-69,3,120,47,-79,80,-53,153,-34,131,-23,-164,-160,-17,-114,69,-51,-81,-114,-227,161,-158,56,-77,-158,-23,5,-63,-7,193,-102,-218,21,-36,5,59,29,-72,-165,151,-38,-112,30,-36,210,-54,37,31,-126,146,-94,-60,90,-129,163,-86,-57,-126,102,9,13,125,-152,5,-67,-125,-2,33,41,-60,-314,67,-21,-33,155,-77,99,-4,19,-238,-106,37,-108,-15,-76,159,6,47,-160,-183,-41,-43,-76,-27,1,-1,62,21,13,-84,-85,134,-152,302,-23,-35,65,-135,41,29,45,-63,-82,116,-3,150,-43,-32,-32,78,-210,118,-96,-107,-88,-32,13,-171,-125,-54,43,71,-186,345,95,-194,-7,32,-11,38,-283,44,124,-163,-155,-174,-140,-22,117,89,199,-11,-192,-21,-44,27,27,-18,27,-35,-27,124,-141,-56,-29,-31,-147,277,-77,2,51,-229,98,-24,260,121,-123,60,40,138,-14,98,-26,-24,-56,-114,-50,-28,7,-167,257,48,186,-180,69,-146,-6,-219,-112,101,0,93,-114,-230,167,-202,246,-3,-275,-54,-65,-169,20,49,109,-68,-63,-195,-46,-20,-113,170,-66,-7,-64,40,162,-86,34,26,-204,247,-60,-68,48,-113,19,-14,104,-150,-188,127,15,149,-9,15,99,-1,-128,72,-120,-117,-146,-208,19,-108,-164,-15,77,18,-204,359,111,-171,-22,2,-13,45,-177,46,109,166,-45,-22,-152,-73,44,-160,78,-86,63,73,45,14,82,266,-188,-184,-21,-220,-35,40,69,-172,-130,230,-67,20,110,-65,162,-42,31,-62,-38,-93,191,-42,56,120,19,48,-56,117,-27,66,-56,92,101,-14,1,170,176,-30,-31,-74,91,87,-59,-92,91,-189,-43,-215,82,73,-150,-20,-151,-123,-8,5,56,-51,42,-253,7,-64,-39,227,-69,9,93,-135,46,-20,73,60,-213,117,-34,-16,173,-98,9,-7,156,-41,-136,101,-11,135,-112,111,-120,-16,-65,41,69,-5,-45,-26,11,122,-122,193,24,-182,-22,-16,-29,-1,-61,44,-112,-81,108,-25,53,14,9,27,-55,-53,58,77,28,88,42,-11,224,11,147,19,-60,-181,-31,160,-106,-39,-114,-61,-65,161,-2,90,-119,-152,-11,6,198,-89,-55,66,63,93,74,190,60,-63,-4,-59,-99,-59,-75,-96,-104,1,135,144,86,-113,-23,2,-213,245,-97,-60,-236,-14,47,-73,205,-27,-94,-63,-102,0,-29,-41,16,-4,-37,-126,145,-109,-17,133,-48,33,-89,-30,-66,-151,-13,99,-148,208,-87,58,88,-173,126,120,68,78,-114,139,78,122,35,170,-2,-126,122,-63,17,-60,-62,61,78,-6,212,-87,124,-147,-62,-125,-235,92,-43,173,-5,-146,78,-209,81,146,-58,118,-61,67,47,-57,94,-44,-63,-108,104,-25,54,76,-75,-239,139,-91,-65,11,31,-245,-196,213,-28,163,12,-204,251,-31,-62,23,13,63,212,113,31,167,84,-5,-14,-173,16,-18,-129,-139,-117,-65,-257,-209,-32,-133,-124,-72,-111,-49,-1,185,-37,-181,106,-94,238,-40,-134,74,-3,143,-83,-68,-7,268,-88,40,-17,48,-39,-81,-69,-44,-65,72,7,-159,-75,197,62,157,0,111,-80,-148,-188,38,-8,-63,-4,165,-69,-24,-127,-22,25,9,48,-93,14,19,-122,107,-53,-119,-18,-9,11,-118,-16,110,-245,43,-26,-40,-23,-163,237,-56,130,65,-32,160,70,201,-104,-1,-89,-79,75,-53,38,-61,-133,10,77,139,77,-77,7,-239,19,41,-55,121,-66,5,-56,-10,65,-85,-81,-16,-70,126,89,79,-45,69,-72,92,-123,-81,-43,17,-83,-65,-49,-207,-292,-1,116,13,-118,204,15,113,-18,-37,86,26,-59,70,71,-96,93,2,150,-57,16,48,31,225,-32,92,93,3,45,-41,-77,-13,-41,243,-95,-59,-106,-135,-216,62,40,0,-223,-86,15,-92,92,-83,-93,145,-23,67,-35,42,89,-6,51,-208,131,-68,-86,33,-41,-192,-6,-2,28,-114,-51,130,-292,162,-12,176,47,-143,210,-30,106,16,-190,73,-48,35,-115,49,-16,-61,-7,9,60,-152,-16,-82,-65,-106,-180,100,-12,61,-64,151,171,26,-28,-16,67,61,-36,97,-8,-251,20,70,199,2,-55,-141,65,-86,-62,-140,127,158,-30,-98,-145,-32,90,-341,58,36,-101,42,-9,133,-24,171,-50,-27,-10,-52,0,74,1,7,29,120,122,101,43,13,-200,-39,-18,35,26,1,-17,-29,122,-6,91,51,-9,-126,-181,82,12,182,62,-107,-105,-225,181,85,-142,78,-113,-93,-5,65,-140,-14,159,-130,55,-134,-21,27,-128,-74,118,-33,-23,-133,-112,-41,-193,11,-4,-14,-35,-203,17,27,-28,-48,-21,132,89,128,-286,2,-28,130,83,163,6,-57,-31,-3,27,58,-33,176,-217,-154,-49,71,88,-62,11,50,-113,-82,45,-56,-5,197,-20,94,173,131,17,105,35,-15,122,11,-50,42,-152,-143,106,195,104,-70,-73,-162,34,213,-16,-90,86,13,-40,-82,4,3,-243,106,74,119,-32,35,-118,-105,-147,31,2,192,22,20,80,42,-62,-10,120,-150,-53,36,107,58,-44,-155,12,-34,148,179,5,-68,56,-132,-28,25,-24,-30,30,100,36,86,-310,112,102,-71,-49,-44,-82,-49,4,172,57,9,-2,-134,124,11,25,-48,-88,-114,-22,99,214,-132,-206,141,60,133,33,200,-56,96,1,-211,-61,18,-150,-59,-7,8,149,114,3,-137,-63,-28,-155,84,-103,171,-1,-92,23,-79,95,61,-69,28,-92,-65,63,-55,77,-77,-109,-161,13,-20,-89,208,22,-42,118,-65,-123,-83,-1,-21,-173,127,-43,82,0,-161,168,33,28,-5,-69,126,7,133,-121,-77,8,97,-18,-32,14,24,-145,-30,-147,-28,-34,395,-51,-88,-152,129,21,121,47,46,-92,-39,112,127,109,-275,-61,134,61,37,-141,-4,-15,-118,10,-162,-2,-151,-167,-34,18,-69,-133,-2,-42,40,-171,236,148,41,48,118,-130,102,-157,117,138,-118,-100,104,-33,-7,-118,81,-36,66,60,-181,48,-69,-120,18,-74,-17,-81,27,64,-169,-130,245,-201,142,-14,69,-22,-203,126,32,115,136,21,136,83,146,2,14,-86,77,-81,-33,-4,16,-67,-34,39,0,180,-43,124,-53,-56,-58,-43,-164,25,-27,-20,-106,-52,-126,144,-25,-95,-14,18,38,-107,185,29,86,-136,-110,36,10,-77,48,-114,-19,-83,-33,37,-34,-37,61,-179,189,1,97,12,-30,49,76,-50,-198,21,-26,88,127,21,-25,46,105,-263,1,-130,-161,-130,-254,-6,-5,-6,124,-50,-23,-211,186,97,-27,7,65,-98,119,-130,41,28,-59,-50,185,152,-12,-53,73,39,89,17,25,-65,79,-78,105,-59,-97,20,-11,48,19,-91,-90,-35,90,79,-59,25,-85,26,-139,-134,67,38,-31,-2,30,-38,-23,-185,-84,-42,38,11,17,226,58,-64,-115,96,133,-47,71,17,6,130,79,-119,22,137,-9,115,-42,160,-180,-27,73,-18,-51,-86,126,58,7,17,51,-138,-217,-45,77,-117,-3,-35,94,-2,-44,-51,-43,67,65,50,44,-39,18,45,-79,-21,148,177,44,-122,65,-57,-33,-61,15,145,63,-50,3,-97,-120,-196,19,-116,135,-58,145,-23,-46,-1,-100,3,44,170,12,40,101,100,-293,-59,13,91,-184,84,37,-24,274,-129,-18,-29,-39,-8,20,132,-124,129,-69,27,-46,49,-79,78,144,-25,152,-61,-136,-127,50,177,-67,-40,50,95,-8,-35,136,-64,136,-180,-53,66,-41,-40,63,52,-183,11,-69,-22,-16,-247,66,-66,76,107,53,-45,-320,1,159,94,-4,53,60,-147,31,-107,1,-14,-4,105,11,-41,-43,-200,47,37,136,-126,113,-77,-97,0,-141,136,-101,17,63,30,52,-20,2,-73,52,38,110,-213,19,-112,-93,47,-38,208,25,-42,22,-106,-23,-228,79,-201,137,-64,35,-88,133,-15,-106,-41,-16,124,-7,-9,93,-128,-69,20,-58,-126,-42,-204,-3,56,47,63,-1,30,114,68,115,-53,-128,-27,-13,97,3,-146,87,-39,67,6,7,201,95,71,22,-10,-70,-40,133,-123,-115,31,8,-32,119,159,-53,-92,61,-91,-168,-73,7,104,-121,119,183,41,-33,89,77,65,-123,-28,63,154,17,54,49,44,18,37,21,-10,87,-213,264,-26,-21,-137,-35,21,-16,152,207,55,20,-1,-176,-97,31,45,-109,-143,-45,-45,-111,-62,-89,-35,64,18,83,-182,-96,-23,-40,-39,53,113,-18,-8,49,19,-24,-117,-160,-142,-48,-13,56,-64,-29,3,-33,-20,184,121,-93,91,39,7,98,23,103,-176,-91,-54,-163,65,-26,167,-6,31,43,-128,76,-140,173,-189,88,-91,55,-3,49,-15,-74,-7,-39,106,124,60,91,120,13,33,-46,69,-105,105,138,38,161,-159,-6,-37,64,-201,14,7,-8,-4,-43,66,-72,-37,-12,-112,137,77,-71,53,-284,-52,112,26,44,-1,-12,40,-33,4,86,27,131,-140,128,-94,137,-63,-51,-15,101,-19,95,-19,-244,-152,-64,49,-77,62,-25,102,-3,-89,-70,75,-12,48,84,-161,-164,-165,-11,6,75,47,-48,-2,81,-60,71,-120,93,-110,-123,31,-2,-119,42,-5,-89,33,-11,143,111,72,-60,-26,1,181,-91,-63,-52,27,-46,-176,63,-175,0,60,-177,129,172,24,-317,211,83,-195,-6,-13,-57,24,-56,-39,-95,-59,-69,-10,144,-12,148,32,-82,102,-14,-247,-44,-196,66,-200,-36,-45,175,41,-159,88,32,-34,-11,-160,82,-40,-17,162,61,68,86,-202,30,225,31,-202,114,12,13,-255,2,-117,-49,64,-117,-5,-18,-107,19,69,149,-212,-54,-4,170,45,-52,-57,86,-5,-22,-123,-182,292,163,102,71,25,-64,167,-45,-88,-170,-112,5,-81,74,-72,-29,131,40,65,92,-46,-29,-134,-51,135,-204,6,14,42,0,-56,-55,-74,-120,30,180,-42,44,43,-15,-63,-125,56,-87,105,3,16,-12,-136,56,19,52,-125,74,-3,30,-134,64,37,-96,11,-59,-34,37,82,96,29,1,-70,-176,63,91,-220,-26,-27,-54,-133,42,-61,-23,22,-3,-16,114,-312,68,-112,71,-25,-46,-97,82,-26,-27,-31,31,96,-60,11,125,17,94,6,40,-164,-85,-31,-18,10,-29,4,-60,-45,-55,113,-81,-9,40,-16,107,-49,113,-119,-115,-108,-75,49,82,44,-97,-115,-112,-71,132,-41,-17,-59,84,8,65,-75,32,-171,-122,-187,68,-6,26,81,351,44,183,27,-91,-125,57,-2,-120,23,22,-82,45,-40,36,139,-119,36,61,174,-151,-101,140,9,145,-218,-39,-105,-14,-165,77,-1,40,-150,-56,173,-116,-36,-125,23,114,-79,-85,75,-54,-42,-47,58,-174,38,142,-59,11,-230,-29,52,155,-20,144,-53,75,-115,-73,13,73,-51,95,-110,-61,-137,-33,172,-50,27,-36,182,108,-8,127,20,4,117,60,24,-88,-71,74,-73,106,-12,-65,-18,-8,-68,84,-3,52,-138,145,-25,-45,-39,-39,106,35,74,41,-13,-50,68,47,5,73,21,-94,38,6,142,-98,-156,-76,32,16,-106,-121,82,74,37,-95,65,128,-205,77,11,62,127,11,-21,74,-112,-17,-42,-24,-35,-62,15,-9,-113,-16,-101,92,16,-8,-65,71,-80,-19,-108,103,19,61,-158,31,-18,-117,8,-135,204,42,-9,-42,120,67,-3,-10,-18,14,-41,32,-58,39,-132,30,39,-93,112,21,-87,57,94,24,-36,228,-47,121,76,7,-152,-59,-57,58,30,-36,58,62,-37,-45,88,-14,11,101,-138,-81,-132,-46,64,99,-33,53,-130,114,-201,122,-32,93,-207,-44,-65,-90,-4,-77,212,-56,-30,124,91,93,33,-99,41,127,-15,-89,89,76,133,-1,-70,35,48,-65,-210,-82,6,-68,93,-118,95,19,-119,-103,-61,-129,81,122,4,43,-8,-67,-61,43,-34,-161,-51,25,0,-25,-235,-1,-70,347,121,79,-128,102,-95,179,-158,105,-145,-43,-149,47,-185,-73,126,-100,97,-47,251,249,-90,44,-304,47,135,-140,-90,65,13,-65,-20,-81,8,30,169,16,260,73,-88,-93,80,17,-109,109,28,3,39,-132,-32,-54,61,162,76,155,-52,-98,40,94,20,-56,-142,29,-74,147,214,1,-73,-80,-25,60,-142,51,-150,83,-115,9,0,71,137,-149,29,49,176,87,-27,55,-27,108,177,86,-147,36,-104,-163,43,-166,120,64,-56,135,-144,-45,-217,110,-155,83,-134,73,88,-21,55,-147,-71,-59,157,175,106,-58,-10,68,-138,-26,0,77,-214,-7,-142,-62,84,-131,-206,73,41,49,166,118,-31,-35,-73,-155,-77,-121,34,-32,28,-35,-65,118,39,-46,149,101,-82,7,-6,14,48,-101,-8,-15,41,-4,-96,-99,40,-11,-103,0,72,249,-137,-89,-103,-248,-27,182,88,91,-10,-43,103,171,-5,155,28,168,-56,-8,-162,-119,-69,-73,187,-37,-108,-6,-119,-24,-26,91,-203,84,-175,-88,74,-76,116,-85,19,76,-15,230,140,7,-148,51,-82,162,-246,28,-128,-60,180,-119,104,-31,59,156,-71,10,-367,279,-107,171,-134,35,0,184,-106,-85,-73,-37,200,-7,44,29,-134,16,74,-46,-278,-24,-18,-172,-18,-33,-29,20,26,121,50,106,-141,105,-141,45,-18,47,8,-69,-24,-188,6,24,228,97,-51,80,-245,245,-10,110,179,140,-157,-417,12,58,-68,49,59,-77,93,-104,99,-100,-71,-129,-67,27,-41,68,113,28,-77,-80,204,175,144,-187,-45,99,-94,149,-22,18,40,13,-50,113,-38,77,-283,-68,-170,-21,68,182,-128,91,18,25,-196,-149,-8,60,150,15,-104,63,41,-22,-99,110,88,171,-237,-145,-37,-155,-84,-41,-60,-25,-43,41,-21,58,-204,7,-141,156,-158,-1,59,-82,-97,-98,-7,14,162,102,99,57,14,99,84,102,-99,50,-131,-92,74,-171,82,-25,-3,52,-139,-4,-202,367,-185,87,-113,60,6,-71,109,-67,-24,-20,4,-43,79,-104,192,-125,-32,51,184,-48,-67,137,-58,245,-130,-95,-281,-70,-111,-24,-87,38,-35,187,-59,-45,-117,-110,34,45,143,140,-139,-160,13,-144,-146,167,-69,-19,-60,-4,62,-36,-138,23,-95,6,-174,46,-64,-18,-19,345,-129,176,97,57,-58,-31,-64,-21,127,-19,-9,171,42,-79,15,162,39,109,-171,-96,-119,-99,21,-83,256,-51,-101,-6,-170,78,-149,211,-169,60,-202,105,98,-100,39,-188,-85,35,30,111,188,120,138,159,-22,-57,-79,43,-21,-199,-153,-51,-79,12,-169,-30,135,152,15,-150,100,-74,-143,-82,-49,-337,-25,75,60,111,-133,35,201,5,92,-69,10,144,28,87,19,-211,39,-159,8,95,-77,86,-252,-145,-97,239,25,26,-106,97,71,-156,-121,-111,53,-45,108,261,218,-145,-261,205,-36,4,-381,30,-36,-76,67,-59,-31,-59,43,-27,27,146,-159,84,-71,-6,-31,-42,-13,180,-110,-36,-69,-41,136,114,67,87,217,68,-3,66,-158,66,-165,-137,31,-120,-73,-47,17,-86,-19,138,-76,107,-83,135,-35,-71,-51,-116,75,-78,-11,39,-87,-16,163,-25,58,57,66,49,-143,-6,70,1,138,-100,5,-110,98,83,-118,-95,-198,232,-84,-49,7,11,81,38,-18,-73,29,-50,42,-177,84,-76,1,74,-44,61,-314,-41,-99,-153,168,-17,-203,-37,68,38,-22,69,-284,277,-116,110,-173,63,-41,7,-22,-85,37,-48,208,23,70,108,104,-64,119,73,34,146,212,8,320,-182,-131,-35,191,105,23,-132,-113,140,-159,2,122,91,81,47,-128,-173,-60,-181,41,-351,-60,-41,56,194,-312,92,-28,61,74,-173,124,-141,54,-117,-44,107,-139,-183,204,110,62,-51,58,116,-42,45,18,77,63,-43,9,-31,-51,-161,101,14,80,159,4,-109,-59,-77,-137,90,-54,-23,-103,55,-171,103,-8,227,-246,166,-129,-29,-61,-189,94,-36,65,182,110,113,10,7,-24,-176,100,42,-125,-238,-124,-65,-94,35,104,-2,-39,167,26,229,-127,87,-198,178,-158,108,42,-54,21,-86,17,34,168,243,44,237,133,93,147,208,-46,-26,-159,-118,-6,-185,104,-51,-75,125,-263,-68,-161,120,-205,-20,-42,-109,91,-65,101,-98,-29,77,40,-95,157,-174,14,103,-169,-92,32,77,199,-172,-158,-147,92,0,-96,-116,-33,98,99,-92,118,-74,-72,36,-18,-174,-69,8,38,112,-91,131,58,48,63,158,58,121,-85,-16,-89,-179,-17,-178,111,-90,-137,32,-188,95,-1,276,-280,101,-216,-29,80,-120,67,-113,-35,-76,85,267,128,33,-225,94,-4,-46,-245,-39,181,-75,188,-255,100,-46,85,160,107,100,-184,283,-138,78,-18,108,150,165,-113,-176,-69,-84,130,145,-35,83,49,0,30,59,-81,-10,-133,-108,-19,7,-26,42,-157,41,-246,51,-27,233,-237,51,-229,-71,-63,-177,162,-173,93,19,159,276,163,116,43,219,-142,-79,19,18,95,-212,-49,8,87,208,-214,-128,3,-22,146,-60,101,-16,-107,116,-47,-201,-68,-26,-16,32,-103,164,-28,-112,-87,3,121,18,-64,-371,-93,-194,-86,-37,148,-98,-157,158,-65,51,-103,175,-252,57,-108,140,149,-141,29,-132,93,-31,84,180,72,90,-382,95,182,-82,-101,130,-2,-86,8,-246,138,31,237,30,261,34,-60,-173,-2,-176,48,-67,142,48,-72,-145,-210,-154,98,28,66,149,-162,-32,159,89,-34,-194,-148,-197,-169,-103,117,8,-82,78,-67,64,-154,30,-323,151,-162,168,66,-64,53,-120,31,2,162,245,136,63,-1,95,-118,119,-108,-34,-18,-40,92,-89,-18,-23,-99,53,-167,-5,-71,-78,-86,-82,-38,113,75,20,-156,-113,-22,-73,97,17,37,-37,-127,77,49,93,0,-132,183,-94,-61,11,147,-80,38,175,37,-174,-91,203,-118,-136,40,97,0,6,-156,-246,179,-221,-38,-34,51,-28,130,212,4,173,-47,10,-110,-150,6,-82,306,113,-45,-65,-64,-91,-5,148,98,-202,-194,-118,-230,-30,117,-137,-69,111,34,58,-8,-211,-25,159,-50,112,-18,-35,-11,-189,135,-132,213,43,-192,8,-68,-91,101,17,-108,-107,10,3,66,68,-57,-66,-85,-100,12,11,3,-55,-31,-22,-133,289,-214,10,-95,-81,152,-183,-163,-175,65,83,-114,27,-145,66,-7,-37,-61,58,67,192,-145,-68,-124,-52,87,-28,88,47,-301,157,11,174,-222,-197,179,-229,71,-156,-66,22,103,280,116,208,-282,170,-268,-203,-68,122,76,-84,-206,-157,-17,-153,297,-81,182,-36,-51,3,206,161,-2,54,-129,59,-126,-45,-37,-108,-121,83,-69,142,-185,84,-114,200,-107,-30,-103,-23,21,28,41,-1,43,-144,-48,41,-90,43,-114,259,-97,-84,218,-112,-13,-18,195,136,-58,114,28,-214,-100,166,17,-42,-29,259,-239,88,69,-118,8,-199,-42,47,-7,-49,-29,118,-44,132,-92,-127,-40,-36,184,-174,-90,57,-46,118,-90,10,-82,107,-152,4,-70,127,45,10,-85,-144,-57,-117,140,-105,86,-2,-9,2,-157,87,-183,-23,-57,-57,152,-125,-45,-127,-75,56,-113,7,-70,43,-144,-59,10,26,3,131,-98,29,-59,-161,103,-103,70,-12,49,184,-39,147,53,-91,-46,-137,-163,25,70,9,-345,-18,-267,-219,31,42,98,89,-120,45,-77,-97,137,-54,145,153,34,240,-153,-187,67,-45,-63,215,12,-99,9,44,166,2,-39,168,-237,82,-84,-331,-58,82,27,-126,-16,76,-131,198,89,-189,88,-51,-10,88,26,3,-31,135,8,153,-98,-196,-93,-238,91,-204,36,42,-115,118,-18,98,-124,181,-115,-36,-120,182,18,-41,-104,-97,-52,-67,156,33,146,105,132,265,-99,57,-147,-63,-13,-205,85,-175,215,156,-83,81,79,79,-86,102,166,-151,-18,-128,-24,-371,-68,85,-66,68,34,41,78,-148,-223,153,-25,-185,9,-97,43,-223,92,90,185,98,137,180,22,-292,-4,-291,-128,-100,-65,269,36,77,231,32,-93,-219,-44,125,178,-198,-195,90,-65,126,-221,6,0,-166,104,-207,-72,-149,190,22,125,163,-249,-96,-28,-71,-53,10,95,124,-170,-27,-171,-115,151,10,205,266,78,115,4,76,-74,79,-151,-148,234,-156,289,62,-45,109,-15,26,-65,88,19,-65,-28,-81,-25,-171,-7,12,-75,8,-71,-31,108,-189,-3,-70,4,64,83,-50,108,101,144,56,-116,-222,41,120,-160,-68,-17,4,-54,-117,160,82,25,263,-49,52,-129,-221,56,-229,-67,-39,-21,12,-8,59,-183,-57,-5,-59,189,-46,-44,-275,119,54,-49,-13,-109,-61,104,2,-138,2,104,120,-57,-77,-67,-98,17,129,232,217,62,-264,53,83,23,-101,-45,80,0,138,-274,-237,13,-49,-82,34,-25,40,-158,-102,153,-89,98,113,37,30,72,-56,-42,-346,-57,179,108,-201,-243,216,38,122,110,-38,75,37,-28,37,26,-11,-7,-100,36,100,34,-300,38,178,-31,182,105,14,-125,-220,45,-166,-98,-14,24,0,169,50,-70,-134,-111,-209,-44,-25,142,-3,-193,51,-154,-49,44,236,-180,77,-293,-40,99,-168,222,-208,70,45,31,182,170,-14,-22,99,56,-40,-174,-168,41,-179,94,-192,139,28,-83,70,-71,68,-135,111,-201,-60,-89,102,97,-73,-90,-109,-34,-106,78,31,84,87,-94,148,107,79,-74,-90,-172,-146,112,-196,257,162,-192,40,62,-131,22,-37,-87,-256,-280,81,-30,12,47,-166,15,-73,-68,200,0,-58,63,230,-103,-52,-7,110,163,-214,-98,-160,94,174,-5,-92,-148,2,34,-170,197,-237,62,-74,-59,-261,-41,-64,-61,-84,-111,-42,49,-183,0,115,94,40,-181,-89,-67,-269,196,-113,231,164,-130,34,-79,-12,-7,-6,-168,-27,-99,2,56,-106,62,-190,-45,-59,130,66,126,-30,-133,46,-79,42,-165,17,4,10,169,-72,-166,-168,232,9,59,-1,-49,-48,3,-90,-18,-44,106,245,-180,-36,-129,-196,-5,-148,167,96,-90,125,110,113,-118,-203,-94,-312,112,-130,177,102,-198,43,-55,32,-105,218,-106,21,-150,60,11,-44,-27,-217,-74,-158,63,110,99,113,6,164,-86,-93,41,41,71,-175,-76,-114,133,255,-112,-108,34,-146,14,-94,140,-230,57,94,-43,-113,146,-104,-76,-9,-77,93,-134,-185,-230,-41,89,192,-103,-420,65,-349,57,-103,32,-14,-11,133,-55,96,-218,94,-17,-34,-250,202,-35,-132,49,-193,26,-144,11,119,183,180,-171,28,40,-120,-177,190,-49,-7,-19,-91,-129,-51,201,-11,227,163,-28,-230,40,-243,146,-143,191,-378,-201,28,-116,-82,70,-300,191,-2,-155,111,185,72,-159,-321,-88,-230,194,-208,71,-23,2,139,65,93,-219,103,-127,-128,-173,172,137,-39,-53,-246,-47,-135,70,139,270,146,97,-131,-127,66,-35,-72,3,142,191,36,-147,-129,-99,76,-149,-17,-25,57,-94,41,105,-29,47,207,-194,170,-53,-180,98,-194,-75,-117,-90,-180,-94,199,22,125,159,174,-39,198,-116,37,72,-64,106,51,51,96,-135,-63,146,42,-35,177,-61,-95,81,0,105,-67,-270,-84,-1,-55,-57,132,-4,-27,-93,27,60,92,-229,38,-72,-43,24,-115,228,80,250,-137,-149,-87,78,201,92,-199,-79,-54,106,22,22,41,9,19,-21,99,-104,27,-55,-46,30,-147,35,118,-199,-64,-89,-50,22,5,-152,-143,54,17,111,244,-91,-53,-151,-119,37,-13,-52,82,113,-125,-222,121,-99,-15,-96,30,92,-20,-218,-204,98,-26,-125,55,-12,-109,-26,-78,64,-38,56,185,-205,78,-111,-39,102,-143,86,2,-136,62,-133,263,-68,-29,59,-112,254,-78,-217,-34,153,145,-14,179,-148,-83,-169,-150,65,78,130,125,-283,16,-146,-133,139,-200,123,190,-21,-8,46,-74,-37,-134,-10,42,-54,-211,-128,53,37,130,104,77,-251,38,-150,-90,166,-48,-89,-46,-44,120,63,-155,106,-85,51,21,-225,-239,-82,10,91,4,1,-350,-25,154,73,207,-19,50,177,-125,-26,-169,4,-277,-36,249,29,368,113,-207,-39,-7,82,85,-177,160,-124,92,40,165,-193,-56,-24,-170,232,-175,-53,-23,-9,136,-151,41,-96,24,-55,-85,-96,29,90,40,-117,-109,-48,-55,152,-67,106,41,235,-142,-173,35,31,-136,51,128,129,99,-389,-198,-94,-36,-111,38,42,7,-53,26,204,-77,-39,245,-204,232,-103,-55,-87,-224,-39,12,-265,153,152,188,80,-95,-120,-341,-111,-76,287,50,-306,176,-12,-97,-61,-9,195,-165,-109,21,46,-149,178,-260,-9,10,114,224,12,4,-158,-225,-104,171,8,26,61,-174,116,181,-334,17,84,7,121,68,9,-63,-25,-264,13,91,53,257,-107,44,79,-99,181,-83,37,251,39,-60,-120,69,-119,9,-120,-80,103,-100,35,-22,-83,-16,-177,-23,24,14,-188,-59,55,49,38,182,-75,57,-45,-72,69,-74,-20,-5,76,188,0,116,-2,25,-143,-134,217,-137,60,198,-116,43,112,-38,-8,-43,111,-162,128,-12,46,-181,-61,-77,-148,-50,137,-93,-100,6,77,-2,19,51,97,-93,-74,68,79,37,-69,-40,-128,158,-162,0,-173,67,-32,134,35,-18,-38,118,171,82,85,-36,96,-126,103,-98,-119,126,-77,129,-85,83,-41,-109,54,-138,-104,-8,207,35,68,193,-143,-203,48,-75,117,48,174,-71,-215,-45,-97,-203,158,-171,150,133,32,114,-64,112,-142,0,-138,63,128,-16,-18,45,-236,86,-104,-46,68,-26,38,-252,94,39,-88,43,-67,-15,-97,-165,117,-216,-89,-18,56,-272,-50,1,250,38,-88,227,27,207,-341,-246,-39,-8,-103,9,1,116,-156,267,252,-14,-105,192,-76,156,18,-42,-47,-236,-126,110,12,-101,41,118,-60,122,-100,-70,106,-79,-70,-249,-24,-178,-15,171,148,-384,152,0,-90,-205,166,161,-110,-14,-119,36,71,-42,221,60,222,-87,-18,132,61,1,-80,93,21,203,-244,-339,-68,-172,-483,-50,36,162,-238,324,-209,-344,16,-169,-6,187,136,125,9,-265,113,-116,-25,-393,-13,69,136,138,-36,92,-81,289,-312,12,0,-138,-74,35,16,-10,-116,-2,82,25,-116,220,-26,74,52,2,125,-106,-236,70,-56,104,31,70,-73,-194,-6,-215,72,-187,111,72,-187,-11,-41,72,-111,13,-213,-133,-119,86,54,155,-8,-232,-12,-136,50,-38,26,38,-117,159,-78,53,-260,-179,28,-382,253,-106,43,47,-24,149,-9,111,-170,104,-161,-224,-168,127,193,-60,-84,-180,-22,-158,67,7,223,89,-140,-243,-5,51,127,-4,-79,90,48,93,-206,-105,-137,9,-62,-23,131,21,-179,-164,20,94,-50,355,-96,76,2,-125,64,-167,-122,53,-124,-42,9,-55,100,142,89,33,-234,12,-19,207,-71,7,-49,-115,37,-102,126,-187,213,-75,93,-127,68,-126,-192,-72,-8,56,-261,-264,22,-8,-84,-41,-102,-77,4,-64,155,-96,-15,-7,-100,50,-144,31,-3,7,-176,-8,102,34,16,274,-144,213,-138,-172,25,-77,-12,51,174,-134,-217,-80,-55,-33,-2,72,73,67,-304,-318,59,-105,-52,28,99,-250,125,30,28,-164,25,102,-108,259,-26,-13,-157,-239,129,42,-35,24,-37,-52,-108,-72,-33,-163,112,-104,-112,-33,-162,11,-88,69,-10,21,-127,24,35,0,135,133,-117,30,-116,-115,139,-102,14,54,-31,-77,-70,-68,107,128,77,41,-188,-4,-80,89,-9,53,47,72,48,-256,75,-172,208,-10,-55,-63,121,-65,-70,15,-69,99,-323,-90,39,56,3,45,-154,-185,-141,-229,173,13,-12,-75,16,55,-40,-6,-241,-112,-48,-251,-126,83,131,101,-35,-64,38,-182,84,65,61,74,-33,18,-240,-4,-171,165,66,130,15,-76,-108,-30,24,-69,204,79,-104,-95,112,33,60,-80,64,-81,-310,386,-108,20,-67,-420,156,-133,-54,41,-81,57,-236,-94,9,-55,218,-61,-38,-44,88,68,73,171,-114,-145,-46,-346,28,-122,160,27,-148,91,-87,-49,3,-85,132,54,150,-132,-114,39,-5,-64,-7,111,59,110,-149,-191,9,-135,-133,10,-27,130,-46,283,-3,-172,-57,216,-48,193,67,-15,-38,-30,-30,-81,-75,-210,-65,180,40,-230,-135,141,49,170,-458,-213,-98,-80,0,165,11,9,-193,418,45,169,-257,180,14,119,95,136,-98,-40,-185,-81,-215,-24,-42,-95,3,194,152,139,1,7,-249,18,-42,-85,69,-17,114,51,-14,104,155,224,13,337,62,-21,-56,-226,16,203,-76,-50,141,-152,-149,5,24,-75,49,121,25,84,-148,-92,-213,-87,-185,-4,9,43,-99,190,106,-18,-84,167,-21,145,-85,-94,-44,-28,-71,-39,238,-108,-201,21,-34,98,-43,139,159,9,-176,-200,24,-175,-100,110,6,-121,6,-41,93,-213,-18,114,-162,151,-45,67,-44,-186,104,-74,-52,-105,-33,106,-148,-40,9,-21,226,40,-296,-184,164,39,-127,198,-106,-382,9,-99,-95,-3,-25,-16,-273,288,86,26,137,-51,173,3,-145,18,-82,-37,-66,-167,212,101,-28,-7,-475,-78,79,136,-106,139,-86,79,-220,25,349,45,94,43,-123,-189,-13,-130,61,-85,210,-141,-98,-197,-30,37,0,5,14,6,-52,183,-112,-54,-112,-39,-155,209,104,-180,-55,27,30,143,-34,137,41,165,17,-64,-46,81,-301,48,136,-248,-118,14,0,-94,41,136,138,82,-299,-281,-38,-47,-188,26,4,107,51,120,53,-124,-77,192,-41,113,-27,44,20,-253,47,-105,232,-134,-173,1,43,-11,-31,125,19,31,-201,-137,-65,-167,-191,66,18,-16,42,99,85,-283,-53,213,-109,155,-23,127,-37,-82,70,-74,-148,12,174,45,161,-51,39,-13,-229,165,-88,38,-198,105,-19,0,76,-101,-54,-88,35,164,-55,163,158,-76,27,-110,88,4,-277,-171,-161,-170,24,-106,98,62,-79,-23,-156,221,-299,-39,-9,-173,66,39,-53,146,-145,10,52,156,-36,243,62,17,49,26,0,54,-143,28,24,-125,-140,130,-119,-45,-95,-16,186,-35,-232,-151,-46,-66,-199,62,-14,-63,24,-45,-64,-67,-32,209,-105,-47,-60,35,76,32,4,8,-72,-77,23,107,107,-50,8,-37,40,76,-204,59,-70,14,-26,6,73,34,62,98,-47,85,1,172,-21,-53,-24,-58,39,-14,-145,-9,112,-136,-91,-99,58,-44,22,-127,282,-22,-158,-148,-81,-30,-31,78,-158,-1,111,-52,191,197,-159,-10,0,-71,18,22,166,-125,-13,-101,34,36,-260,56,-162,140,-44,90,113,-1,-308,-124,150,-8,52,146,-18,-217,74,-122,80,-113,45,-49,-248,269,-31,36,-26,-194,153,0,97,-188,-79,-9,23,-126,-43,242,98,36,-169,-129,-118,-75,-142,44,-18,90,-76,104,49,0,-187,230,161,44,-125,-92,10,-109,-66,-136,162,-224,-109,49,181,23,-95,124,-231,107,-7,-195,-33,-191,-101,-62,31,84,0,195,-35,-95,-158,-2,13,167,82,167,-121,-35,95,0,287,-111,-120,-6,-151,119,-119,126,64,19,34,-111,-52,-268,-62,155,253,-290,311,11,-2,-265,-127,-11,-180,62,-43,74,-105,-199,23,-197,115,25,49,164,36,48,-182,36,-18,60,-67,-141,-91,-117,-263,-226,-90,282,-96,181,-217,-217,-16,161,59,86,121,33,-111,-95,232,22,-119,-307,-23,26,-33,60,72,42,-95,45,-206,-56,43,-136,-68,37,-6,103,-109,9,56,185,-189,71,-131,50,102,161,-69,-37,73,47,-49,-151,-50,-61,37,-204,-7,69,6,-2,-64,13,-122,44,-144,73,-31,-78,-109,-30,140,92,-66,268,18,37,-7,-284,64,14,-11,18,146,-164,-196,-8,-10,-75,-181,181,129,156,-133,-115,-47,-70,-144,87,40,-5,-39,61,-22,-126,-16,116,-109,80,-29,-5,69,-48,-31,43,44,-158,-5,-87,-3,-155,28,28,16,127,-247,-101,10,-40,-57,18,-45,52,-84,199,50,120,-93,284,-18,164,-38,-201,-71,90,-45,0,-53,-46,-45,-88,69,23,2,43,-313,95,-73,103,16,-3,16,-240,82,67,-50,125,104,-38,18,-3,164,-85,-11,26,19,-28,-233,-96,110,-172,-66,-34,-40,-127,-62,111,205,42,-140,-116,-208,19,-129,7,-12,2,-56,143,55,-77,6,190,-60,127,-73,-119,68,-22,-41,-8,288,-93,-207,-15,80,137,-40,197,-96,59,-134,-204,43,-120,-217,141,50,-68,118,-38,145,-218,-52,-49,-143,197,-42,117,-190,-270,150,-140,29,-39,-116,8,-72,-92,-35,144,199,3,-125,-59,-99,-53,-68,-29,-19,-48,-53,30,-9,-90,-6,202,-51,107,-87,-165,69,-75,-85,-17,1,63,-47,-73,121,-60,56,40,-344,95,31,113,48,25,67,-192,100,38,-134,-36,150,93,86,20,180,-32,-24,35,-37,34,-350,-137,-37,6,4,133,-98,-44,-218,10,67,-37,-90,-79,39,-120,-145,205,4,-295,30,74,-108,-199,47,110,-84,46,-48,-39,214,-11,-35,72,2,65,-246,159,-165,204,98,100,-124,-67,-139,-71,0,44,43,29,-136,-13,119,84,41,-143,-60,-228,-210,266,8,83,-172,-136,109,74,85,-110,-172,116,-177,-96,4,-8,248,23,-115,-162,13,-26,-143,220,-123,-65,18,36,-113,-70,21,30,-154,224,11,-4,122,-22,53,70,123,-13,-117,-4,85,-115,92,1,-26,60,7,-171,24,-84,-105,-36,0,125,57,92,-15,-119,-95,141,-6,118,84,-4,-170,5,28,26,-141,-404,18,204,-12,-112,102,101,-345,32,-24,-104,-45,25,-280,86,-74,-222,-153,170,-82,85,-192,45,73,-123,160,75,-91,123,141,136,118,9,-84,-129,54,72,-20,-258,-107,34,-17,-26,-162,-208,-121,-226,111,127,-40,94,35,129,-61,126,93,-175,74,48,-12,111,-186,55,218,-106,-144,57,-87,-64,5,103,64,34,5,-59,-69,-74,-146,58,-62,-18,-45,163,26,-102,-44,252,-90,141,-36,-49,-70,16,-33,45,112,-30,-137,61,-59,118,-73,10,-15,-34,17,4,71,-20,-101,70,68,-69,67,11,63,-184,-7,-29,-74,94,-15,42,-55,-130,120,-122,-71,-167,-49,143,-22,102,-96,-86,48,-111,-29,-99,-10,-27,-232,140,-131,-265,68,401,-152,-149,-83,-35,-135,93,112,60,-32,-35,181,-24,156,-242,18,113,102,84,5,22,19,170,-45,-114,159,-86,-44,54,-29,-26,-100,-41,157,-153,-117,-102,-67,-7,-75,40,-61,-111,41,50,77,-15,55,-116,164,-26,28,-78,-341,36,-74,-172,93,60,-151,18,24,0,-31,105,89,-10,18,-84,127,26,-85,144,-113,28,-22,0,98,18,-33,106,-72,-17,-52,24,167,-24,21,-126,7,-69,-66,119,6,-52,1,102,-27,-101,-56,244,-99,-26,17,-36,-32,-8,-92,-62,88,-96,-58,33,-18,78,-53,40,-155,0,112,35,-19,-26,-164,16,4,64,38,81,-23,-140,-56,13,-2,33,9,55,-100,-50,40,-113,0,-67,46,64,100,-139,-6,13,-44,77,-118,78,-9,39,-181,-29,-115,3,-42,183,-15,39,53,37,-119,-35,100,102,59,27,-124,-91,-22,62,-58,31,105,-180,-38,-259,-69,-57,-30,-268,-103,-47,-23,38,-109,-39,-5,112,-65,-14,-102,-66,17,22,184,29,-17,217,20,118,256,-183,-71,116,34,-147,-7,71,34,75,2,-105,-57,-40,-106,-76,-40,48,-46,247,31,-160,-104,155,-101,49,6,-34,-75,-75,-7,-17,-46,58,3,50,47,-176,93,-18,-61,-7,-51,8,-57,-93,-72,-119,-8,-67,-83,58,-76,137,38,154,104,-11,105,16,37,105,-83,85,0,-85,132,41,101,-72,-50,36,157,139,-74,-49,10,91,-203,-13,67,-36,-92,-193,-30,-28,-17,-14,4,-66,74,21,24,-132,39,-140,70,-61,-212,119,-174,179,88,27,54,-147,-30,-138,19,-48,45,91,-95,-266,13,24,-144,-105,-143,-96,-192,103,77,120,-180,-112,185,10,105,-201,126,141,30,-23,-54,147,-46,66,30,-72,-82,-78,-124,-92,-68,99,-46,127,2,1,-128,209,113,-87,45,-17,-85,-49,-60,72,-11,58,40,113,26,55,-210,85,-130,19,241,-6,-83,-49,-113,-4,-135,3,17,70,-227,-220,-105,29,84,-106,72,77,-54,-43,177,64,14,125,-155,-8,13,23,32,-80,-234,-211,86,40,-375,11,-122,77,23,-28,167,19,53,-197,-67,29,17,-91,0,162,0,-176,-109,-183,-54,221,244,66,-92,-9,-213,-184,-124,27,-40,77,-81,100,9,-104,-4,237,181,-363,-60,-13,153,7,-43,-335,-13,-31,92,200,-6,-23,-176,104,-38,128,89,-96,166,-185,-44,-76,84,-1,54,-46,123,-97,-84,-33,41,11,-132,-44,62,-218,-3,41,85,10,-21,41,5,124,101,-211,-93,69,36,-35,-75,-44,62,164,-167,-187,-96,-34,-281,57,-129,153,-12,229,-52,4,-63,279,89,181,24,-10,-54,50,-50,-55,8,-78,-69,31,-46,-57,-129,-33,102,-69,-117,-142,-102,-149,-210,3,-26,15,83,196,-51,-62,-31,63,-73,233,-109,-4,149,156,-66,23,110,1,-49,74,78,-76,-50,-96,-13,102,-40,-58,34,-62,-122,70,-109,33,-17,187,-67,52,-160,24,19,72,68,34,-136,157,127,74,-100,48,10,-66,46,-102,118,-11,-54,4,38,75,57,-68,32,-142,57,171,-137,141,69,83,26,-61,190,-216,-70,51,61,-59,-153,-32,183,-162,-142,69,57,-31,-16,-18,-21,18,-156,-93,-144,-39,-201,-12,-18,107,62,193,-39,-96,-145,110,-46,116,12,95,-49,4,-22,-91,133,19,-212,-68,-153,190,39,-37,-120,-49,236,34,5,87,-11,-46,81,51,108,-47,112,-301,-10,-115,67,44,-68,94,19,-117,45,-196,180,9,-156,42,1,-30,-34,-19,81,-26,-177,-165,-109,-109,-208,-116,1,155,-10,312,39,-224,-58,90,7,18,-100,57,81,3,-62,9,-89,18,-42,-148,104,-108,45,50,3,-16,54,186,92,101,179,-161,75,218,-205,-21,75,-12,-9,-55,110,-72,-44,78,90,-86,-180,-122,114,-109,47,71,136,-153,-27,201,-127,113,-118,-41,-60,14,-20,22,30,-16,-79,49,-151,-175,-61,-251,47,50,18,57,155,76,-87,62,-139,-12,58,33,-157,8,49,-26,-77,23,-78,64,86,25,-25,11,-53,-7,43,202,9,4,-93,77,-139,-17,-70,0,2,-245,20,-53,46,-137,62,78,29,1,-271,163,-105,151,-66,79,-20,-53,-69,85,7,15,-114,85,117,69,-37,9,148,-39,-13,-53,-4,-16,-70,-11,108,167,-14,-65,43,100,-10,-29,-86,-127,395,57,-108,-92,-54,-12,89,-91,18,41,-140,-60,35,-98,212,-143,-136,37,-74,4,13,-125,-167,27,49,-25,-10,99,85,-66,-36,73,-121,-34,-67,-49,90,15,-48,-105,-49,12,-80,0,-77,-144,108,-18,30,0,-78,146,-34,84,13,89,-87,-110,-28,131,99,225,-242,22,-277,-257,173,-89,46,-8,-19,-165,201,-61,-3,-91,-186,192,-39,115,104,75,-24,-246,0,215,88,19,94,34,11,-3,-168,30,-20,40,-56,-61,-20,-134,-83,72,-3,-26,-36,108,-7,-126,18,17,113,70,15,75,-10,47,39,24,102,184,36,73,-49,154,35,-67,37,-75,385,68,-167,-70,-108,-132,-14,-24,62,-53,-183,70,122,-96,52,-89,-74,-2,-11,-21,47,38,31,33,47,62,-88,-109,52,-175,-12,-101,19,-29,-177,49,-56,51,8,77,1,26,-147,-85,-54,-159,33,-16,39,75,92,25,16,159,-63,118,-144,-39,134,235,-205,-255,23,170,-152,-64,-117,198,97,-19,13,86,70,-18,-22,191,-52,-384,259,-166,-105,99,-36,-20,-166,-9,-45,1,-55,-92,148,108,52,70,-68,43,-132,-98,-124,-77,17,-134,74,-47,62,11,-87,-31,-316,125,-80,227,-4,83,59,-149,-103,158,89,34,63,-5,0,189,88,-27,-34,-161,317,-50,-110,-193,-104,-50,166,-118,-5,-138,-86,-170,39,33,97,-10,-104,1,-67,-58,33,-91,52,164,109,79,-110,70,-41,-106,12,-13,222,-15,-174,-24,-153,-58,-38,120,40,134,-230,125,65,-98,98,-171,-15,81,11,100,57,64,29,-59,-80,-8,175,-98,92,347,-113,13,-208,-115,-6,-80,-164,-4,-22,-106,-21,60,128,-8,-223,196,48,161,-20,33,19,-261,-137,154,78,101,-173,-40,-13,60,-49,-21,-148,-7,-87,-17,-128,-70,44,-212,83,54,145,23,-91,-164,-242,-11,53,74,78,98,34,71,110,0,83,122,72,-3,-24,-22,-54,-49,38,-41,81,-99,-1,-158,-117,-1,51,36,-120,90,-249,-3,106,-145,115,-34,55,62,38,146,35,54,14,30,154,23,-50,-48,109,-123,-131,47,-255,-225,304,-135,227,-61,-63,-260,-94,43,-85,-87,103,198,29,-67,-37,189,-65,17,5,165,191,-24,99,-39,2,-2,-168,-58,-79,62,41,-8,-230,-104,-180,-111,294,75,-100,39,-72,-33,-77,62,-102,66,9,73,-41,-1,168,-31,-66,8,8,140,-89,-53,-6,-8,80,-24,-1,25,53,12,-40,101,-39,16,-157,205,-36,28,-32,83,-109,-82,-85,-79,132,-46,41,105,-24,-58,155,7,-173,-53,99,-67,-48,71,-189,-267,73,-33,-29,-71,-141,-86,-24,115,51,-88,90,179,138,80,-50,-25,-19,-190,-54,220,106,3,47,-14,-103,-93,-7,-70,33,-12,70,12,-105,5,-131,45,-7,193,2,-37,-39,36,-15,-111,130,-44,102,-49,80,-16,72,-48,78,-13,159,-130,-133,189,130,-58,-102,-22,-183,30,13,-199,-41,-66,-10,-133,-59,103,-89,1,8,63,118,-16,73,126,-10,36,-92,36,75,77,-200,206,35,-275,19,28,-71,-16,57,49,-249,-15,-96,82,72,8,94,-26,-147,121,-90,-38,-83,64,54,116,-102,45,30,-187,91,86,-112,38,74,18,56,-37,-55,-15,-117,10,-250,-92,-125,-74,55,-107,51,75,-49,40,-15,79,-125,121,46,85,-47,92,0,95,35,-62,77,-12,49,-227,-120,243,-75,209,-250,3,-19,-126,-88,55,-58,82,-112,215,143,-94,-46,8,51,156,0,-21,35,-146,-73,93,133,147,110,106,6,-136,-45,-132,44,-18,76,-88,-146,-138,-74,25,30,30,11,89,-355,68,-56,-109,77,-170,16,-27,80,160,-4,176,58,51,-30,-133,27,-84,-65,-42,-148,-54,11,-239,-209,-94,-11,-44,47,-216,155,110,-49,-271,-90,-5,100,138,-40,101,32,-85,141,32,-153,65,52,-32,-14,95,-3,-146,-76,-46,-49,-128,296,-174,177,10,44,-126,-39,6,-192,63,57,175,-95,-110,-107,149,-19,53,73,146,196,42,21,-62,72,-5,-205,99,15,9,-127,-111,-63,-276,-138,41,85,-51,-43,101,-11,-80,21,-41,166,94,29,68,-30,49,38,-1,55,-20,-14,40,-50,71,27,-42,-13,-60,125,76,-56,-3,-87,-116,29,-25,4,65,-134,81,-118,0,31,-17,24,77,-4,70,-84,0,151,20,-10,2,-52,-15,-87,91,-72,-38,95,-71,-133,-65,-134,51,0,0,69,-94,-117,23,-92,-122,170,-20,-25,92,3,68,36,66,-17,48,-28,-144,105,169,-101,-103,-234,-23,27,9,158,-190,196,-33,109,-164,64,178,-71,-17,-19,147,-21,-49,-93,151,-65,10,13,-14,134,-6,48,120,12,-223,10,-96,-155,65,-114,-53,-156,-91,81,154,-82,73,-55,33,-166,82,-197,-189,44,-117,-7,-11,101,212,-34,216,-216,95,0,68,-218,-16,70,-233,79,-115,-71,-48,120,-15,67,45,-77,126,-23,34,-30,129,26,-25,-1,-138,-67,-8,24,-94,72,83,63,-22,131,111,-103,-93,-92,-87,-239,45,56,-69,-160,53,-86,47,7,118,-127,145,-115,-19,32,-169,174,-60,9,103,66,314,45,39,105,156,8,5,41,172,-215,-91,-40,-149,254,5,-63,-100,-21,-148,36,-25,-63,-157,-11,-114,3,41,109,-142,-157,-6,-93,111,-58,-52,103,11,-155,64,-136,41,56,-43,-126,-82,74,-10,-253,101,46,154,37,37,-7,-149,41,-7,-9,-234,-41,42,42,19,6,-71,-45,-15,98,31,-124,70,84,34,54,-96,-179,87,103,-187,-65,-234,27,64,59,-36,20,196,10,-263,-25,35,22,112,104,226,1,0,64,41,147,161,-46,42,80,-62,-209,-123,23,-113,275,-119,-188,-186,-119,-54,87,-109,60,115,-184,-74,41,-144,115,-15,-103,177,-101,235,124,21,-10,166,-118,180,5,43,-90,-220,-47,-63,215,109,-89,-20,-112,6,-22,20,-128,66,-106,13,85,89,49,-66,-92,57,-14,-23,7,-63,81,81,-41,143,-78,-5,-55,-242,-23,-169,-10,-17,-208,16,-48,6,-75,21,-84,-147,-180,-87,72,-132,-72,-125,3,154,124,7,81,19,-76,213,37,-97,165,119,-53,104,44,113,28,55,-127,290,67,-91,-133,45,-29,-29,24,14,-194,-1,20,61,-170,10,85,-10,-33,-291,181,-75,-219,108,93,137,-47,-54,-207,-47,99,117,-273,-166,-48,-35,191,-123,166,91,-73,108,-48,-103,-49,117,4,144,-186,222,0,-138,-10,110,0,37,186,234,-43,-97,-167,-201,266,144,-142,-137,-23,-178,62,-52,129,-84,19,-102,48,-71,-56,-39,-171,62,-129,8,-44,-80,202,108,94,6,-145,-37,-98,-195,41,-163,259,164,-89,-31,-113,-85,-8,85,-150,48,-258,31,162,-43,152,-135,29,19,132,130,53,-241,83,-104,50,-56,153,117,-134,80,-385,53,-134,-73,-83,-154,-8,-86,19,-147,119,239,77,-43,-160,94,8,18,-31,172,-78,44,8,90,165,12,-221,36,-36,93,38,-41,-12,-114,205,89,-237,-189,63,-115,127,21,199,-193,-51,130,-26,-203,-64,125,51,-96,-46,24,28,-210,170,160,48,87,34,-9,-200,-263,47,-172,251,-73,-210,-124,-162,-51,21,5,-84,-32,-137,-41,106,-79,161,-142,-73,159,95,71,43,-141,184,115,99,-42,-47,104,-5,-287,117,-114,-116,-374,168,-160,113,59,53,-298,178,106,-256,-148,60,52,0,-14,3,133,-155,-69,297,152,116,69,11,40,-158,1,-138,-7,75,-46,334,113,-143,96,50,-126,21,-21,61,-76,40,-96,65,-246,87,-224,18,-15,131,150,4,-160,-76,75,-65,251,-255,0,14,-178,-41,51,-33,14,-38,159,29,29,-228,54,-70,171,-110,-43,55,23,-199,8,-49,89,30,21,126,-110,202,70,0,22,-106,8,-53,-170,25,13,0,-270,-63,-127,-19,-75,-73,-148,91,73,-163,-165,119,-61,86,44,-16,172,-102,-40,137,198,60,30,-39,60,61,-13,131,-1,122,-92,250,85,-124,108,-105,-124,-107,-36,-70,-74,14,73,38,-42,-55,0,27,-129,108,-136,-11,50,-31,75,-82,61,-44,-53,-13,-118,-62,-44,143,-12,-175,88,-74,-119,-170,114,-137,116,-125,80,73,-75,-15,-55,46,104,98,35,27,-160,28,-5,-110,263,10,27,130,-13,289,-103,-5,147,-113,-7,-59,-71,-92,165,-24,-82,93,41,-100,-69,-135,-135,104,-151,-27,-105,-59,24,166,16,-188,262,2,72,34,-166,86,-115,70,138,-157,-31,-131,25,47,85,61,-262,114,-2,26,-41,-122,-12,55,-162,-184,-42,102,-190,199,14,128,17,-27,19,-140,28,-70,-63,50,-89,-142,-174,-200,-19,22,111,-151,229,-125,-66,-8,-160,227,17,65,150,37,118,100,-92,-18,171,18,17,-76,-90,-19,-103,-133,-109,153,-97,-104,-115,-42,9,128,69,-1,63,-263,52,19,-146,39,-107,-7,172,10,234,15,179,71,186,-39,90,68,0,-227,-119,-90,-44,259,-19,-269,-168,-84,-93,171,-66,94,-170,-94,-171,-23,-102,132,25,-29,31,7,37,125,-116,-83,164,-50,-34,49,168,-73,-107,-238,-236,11,-24,349,-110,195,-7,117,-299,164,42,5,-21,55,141,-50,-113,-30,-58,-26,107,105,-23,150,228,40,71,29,74,-174,-179,-8,-143,362,-38,-270,-137,-116,-139,32,-37,-32,-43,-158,-17,110,-116,96,-175,-33,134,15,54,75,-62,-89,116,-115,155,-144,4,172,-143,99,-110,241,136,-182,173,49,-127,-119,197,-98,99,-87,49,119,-19,23,-67,-36,-22,6,88,-45,-104,140,199,-11,28,-36,98,-176,-123,-14,-117,153,-12,-256,-85,-178,-48,84,99,-48,-28,-146,-44,61,-192,135,-108,-50,175,-93,247,93,-135,-77,167,-27,-214,31,193,-103,-18,-268,-192,166,62,139,-194,264,-90,8,-237,68,-23,124,-4,87,-54,-16,-36,-95,104,-153,86,-7,-20,-67,203,72,-18,-143,-205,76,-237,-63,-176,177,165,-237,73,-115,-17,-60,131,-108,-90,-81,26,164,-199,86,-172,6,-41,-16,38,124,141,-230,93,44,303,-158,9,-38,-218,53,-149,-184,-145,194,91,-6,6,-154,63,-6,-66,4,12,117,167,-55,-142,-1,-160,103,-193,165,26,-33,200,110,11,-127,-320,-128,-357,37,-156,305,62,-89,1,-6,18,-32,52,-25,-42,-306,41,130,-321,107,-167,32,79,19,232,253,167,104,-97,-103,-101,146,86,39,132,-62,-44,70,301,-97,2,-96,-191,128,33,-110,-131,202,-51,-13,-14,149,9,-188,-245,-43,-175,-129,-131,62,-24,-224,272,169,-27,130,15,209,-15,79,207,-84,15,-164,-67,-71,148,-48,-83,103,-2,-131,24,-254,-52,-59,-135,160,-347,-23,-99,274,135,64,102,27,201,-137,-52,-155,-16,355,88,-167,-90,-33,-104,78,-28,65,-242,53,-276,-17,-165,189,-200,-105,179,-5,69,-50,-303,86,203,66,13,4,29,-240,-298,6,-237,454,220,-149,-40,-69,-60,145,-122,-44,-117,-177,-63,85,-137,83,-166,-161,71,-34,129,44,-39,-53,-45,-108,28,22,30,30,19,-28,-36,-41,72,-56,-13,-101,-157,-17,-2,-76,-116,52,84,114,105,84,-12,-92,18,-32,-23,-130,-215,-44,99,-99,239,-65,95,35,-66,24,-114,-26,87,-167,173,-228,-95,103,39,-6,-217,5,-146,92,32,19,-187,-50,-90,16,-189,-84,-81,38,61,41,189,21,-148,-25,-3,-68,-30,-119,-125,-278,133,124,-40,-147,96,-28,-107,20,29,-337,81,178,-141,97,98,-62,77,-166,-169,91,61,-63,176,8,10,26,-207,-193,-120,217,395,-204,-10,141,-144,-31,-190,146,-148,-165,151,54,9,133,-231,-31,107,-5,152,-19,-222,-26,-36,-93,-122,143,114,54,106,-79,-104,97,381,20,-76,-128,-163,121,-42,10,-56,200,-156,94,-11,-31,-10,-249,-95,-174,-123,-136,-129,-5,-1,-124,66,31,106,-80,25,10,-59,51,21,-187,-44,-158,-88,83,22,-88,-168,60,39,42,44,13,-86,-67,-21,87,-68,-160,-151,50,231,14,25,18,-4,41,-222,-278,-226,274,146,-75,-205,117,-136,-42,-132,80,141,-140,-58,9,-169,44,-128,-68,214,-171,187,101,11,23,-222,-98,90,144,253,62,32,7,94,-10,368,-290,-65,20,-70,45,-23,59,-284,8,73,-201,61,110,-47,102,-14,81,-215,-289,-117,-21,-22,-4,-7,-21,53,-98,-29,85,-152,111,141,-195,-9,-146,-202,47,90,-140,-55,19,70,132,9,85,-5,-108,-96,22,-52,-53,-189,246,216,-50,7,13,157,-31,-122,50,-235,189,61,-21,-227,-140,94,106,-449,237,-229,-4,-284,43,-288,0,-6,-175,76,-66,-69,156,-220,-183,209,64,-262,154,132,16,95,-18,33,96,74,45,32,112,-275,-5,-65,-218,-111,137,146,84,10,274,101,-92,-190,96,20,-135,-89,-98,22,-12,193,-186,-164,-70,-322,215,-105,-124,-85,186,174,6,61,-183,50,-74,50,-63,12,201,3,-197,-116,-43,-48,94,-86,150,0,195,162,-93,96,113,184,-77,-168,118,-54,138,-24,-265,-182,-291,-49,63,-166,81,-96,-77,-312,-63,-152,156,55,-154,174,7,-23,134,-17,-61,-148,9,-1,35,-86,34,188,115,127,-75,-141,-93,196,-162,-2,-71,89,-132,-141,164,49,-1,155,-11,67,-13,-113,61,-285,-128,98,-37,16,-1,116,54,26,-96,-18,133,-37,31,-66,-10,0,-162,-130,-36,-44,-46,-311,76,144,85,247,34,-75,-146,16,34,55,31,1,0,-222,81,15,94,-62,-49,160,8,296,-344,-37,-183,43,-212,13,-57,40,-9,-177,101,-56,-53,76,-60,119,3,-15,-23,-64,-214,76,-75,-70,-10,-5,19,144,91,92,-93,1,9,431,-158,77,3,1,-65,-132,-44,-167,97,23,-88,72,12,